4799 10
0 0.58091843 0.80012584 -0.3685521 4.3265977 -5.0172796 -3.1489365 -3.3403711 3.2725189 3.4603002 4.8737164
1 0.2214027 0.38050833 -0.87148875 3.6239297 -3.7172203 -2.21576 -3.3699408 2.4262142 2.7709062 4.3896923
2 0.2772586 0.48066747 -1.1868498 3.6151125 -3.2812078 -2.3683383 -2.8813078 2.519765 2.794306 4.0915747
： -1.748004 0.2604433 -0.7755373 -0.38191217 -0.5795746 -1.0339115 0.58962715 -0.91716444 0.16557561 0.3689428
大 -2.733112 0.26186138 -0.37524885 -0.20753571 0.22316357 0.14649941 -1.1637459 0.37692633 0.053254604 0.32897624
国 -2.7925394 0.85767347 0.15397549 -0.55989474 2.0094128 -1.9814224 -1.4209388 -2.3187776 2.1778584 1.0161984
图 1.8091615 1.163287 -0.86762583 1.7092968 -1.0783356 1.2929223 5.3037806 3.6815271 1.8298805 2.638179
( 0.96560377 0.13464591 -0.35580015 0.64987373 -0.806291 2.0148168 2.038747 2.4081137 1.1013918 2.298904
) 2.7083118 1.6469845 -0.9702976 2.6800618 -1.8624402 2.129394 6.628927 4.7370415 2.6663115 4.4776945
3 1.4713179 0.14375292 -1.0681766 4.4197564 -2.8909523 -1.6434487 -2.6842353 2.3339539 2.290059 3.0405917
人 0.3446589 -0.6872514 1.5576363 -1.3084018 -0.30932122 0.48337626 -0.50067556 0.54588133 0.43684408 2.1431618
年 -2.147729 0.7954625 0.022430254 1.5832039 -2.3438685 -1.7683136 -2.995544 0.564481 0.30535272 5.184292
5 1.0514919 0.1636268 -0.89025223 4.238648 -4.4115567 -2.0138586 -3.0976985 2.902697 2.7686245 3.1514478
中 -3.0516846 0.65331614 -0.7476258 -0.6008995 1.1065327 0.092744485 -1.0233003 -0.0780364 1.7277488 0.8625773
新 -2.1940074 -0.08767002 -2.8818762 0.7538815 0.05900411 0.85770607 -0.56014824 -0.49669957 0.7244059 0.18714255
9 -0.68688637 0.89535 -1.5386796 4.00655 -4.7140293 -1.7532227 -3.0704107 3.3183525 3.4172695 4.820718
生 -3.394833 0.026440611 0.25748155 -3.326916 0.0591316 1.5319898 -0.12218695 1.6965965 1.4819484 2.8658671
金 -2.4562697 0.51548713 -1.0296849 1.6875023 -2.8910007 -0.56276083 -1.8918785 -1.5915715 2.677298 -3.81111
高 -4.668523 1.1024572 -0.9221735 -0.33952883 -2.2930121 -0.01767043 -1.1327082 0.962144 0.48835644 2.0276203
《 1.4710348 -1.8190961 -1.7161893 0.4465824 3.7579985 0.47441682 1.1336933 -0.19869463 -1.7773687 -0.5025738
》 1.081431 -0.87477964 -2.0509274 1.3844022 1.9619806 -0.16410252 -0.07945966 -0.5209695 -0.088764705 2.071839
4 1.1285415 0.1704102 -0.6316763 4.141654 -3.219364 -1.8401917 -3.0259833 2.7508469 2.2241414 3.2789884
上 -2.0305185 -1.6214494 -1.5922995 -0.117132336 -0.0070037795 0.6874112 -4.226729 -0.26538536 0.61271137 0.2829225
8 0.36586133 0.37782773 -1.3262402 4.093397 -3.9757953 -1.9014709 -3.220374 3.33385 3.2161906 3.8627353
不 -1.0934548 -0.47529072 2.1496506 -2.169307 -1.9674044 1.5890304 1.2469097 -1.2834573 -2.0748158 0.320208
考 -4.8731003 -1.1100668 -3.3055212 -3.7216084 -3.415085 -1.7304829 -1.4069217 -0.783495 1.5692554 5.8092794
一 -2.4455154 0.23359352 0.0946199 0.42392573 -0.29551354 0.65535367 -1.4048723 0.65991956 -1.7541511 2.5972116
6 0.89165586 0.069014475 -0.9987691 3.9182057 -3.915661 -1.7673445 -3.1725307 2.8269498 2.7448921 3.4281034
日 -1.9258262 0.667314 -2.6725569 2.976117 -2.5914738 -0.7964004 -3.0337887 -1.5940763 1.9580867 4.290327
元 -0.37507334 2.0530622 2.3343575 2.5079963 -4.353993 -2.9398634 -1.482292 0.9371248 3.8282683 2.2689345
开 -2.6912024 1.390131 -3.0532122 2.6699584 -0.3177161 2.4906855 -1.2530308 -2.64323 2.030511 3.352428
美 -1.1665682 1.0290381 0.8566339 0.21303393 0.00868817 -2.0149827 -0.760918 0.52956265 2.7505088 0.6416063
价 -1.6754066 2.4860494 1.2491319 6.4241405 -6.331772 1.6653076 -3.0706134 -0.36642072 1.1089386 -0.71088237
发 -0.48141932 -1.4434236 -3.2095268 -0.09752424 -0.3107729 1.3942986 -1.8645517 -2.7757761 2.8145354 0.66690195
学 -3.8805196 -0.5071792 -0.2083415 -4.183874 -0.6664189 -0.95542145 -0.99625796 2.4068859 2.2568626 2.9847777
公 0.5803073 -1.9812592 -3.7484813 -1.2651445 -0.50689626 -1.2313595 -1.8900907 0.14388068 6.987203 0.112235844
成 -2.1027172 -0.6266852 -0.48881537 -1.4989897 -1.934394 0.15181512 -1.1886574 -0.2375238 0.51513726 1.085497
月 -1.4040953 0.7777292 -2.4666321 4.204741 -2.8782818 -0.6109183 -4.5504966 0.6812017 2.7152479 6.857305
将 -1.0013022 -0.43951806 -0.21855223 -0.39305136 -1.1052203 0.72390467 -1.2368735 -2.6607108 0.5945443 1.3781765
7 0.7604792 0.10304653 -1.0846984 3.8492005 -4.13667 -1.755124 -3.1308928 2.8080008 2.7280803 3.5001163
万 0.34657642 1.6425699 3.0481372 2.6765451 -4.242126 -2.9904044 -2.429741 2.9944785 3.537334 2.5852122
基 -3.2824621 2.1992757 0.14542869 2.9957674 -3.6220672 -0.67387545 -1.1255679 -1.6711781 2.6435037 -4.034889
市 -3.951442 -0.49346277 -1.4646735 1.4702237 -1.1754831 2.5513024 -6.2392583 -1.6444479 2.1550677 0.05082804
子 1.1313443 -1.8872117 3.3116074 -4.081252 3.054864 0.7471246 0.54816633 2.905382 0.42898324 0.9423259
出 -1.058527 0.779024 -0.28307137 1.119761 0.1429756 2.5884905 -0.33826458 -1.9140967 0.53841066 2.1796765
行 -3.1966848 1.0303658 0.5759927 -0.5782562 0.6091305 2.833513 -2.1029456 -3.664489 3.3477998 0.3684936
机 2.7973335 -4.28404 -2.734943 -1.0288728 -2.1386893 2.7912796 -1.7175603 -1.3024353 1.8640952 -2.066208
业 -4.8348 -1.3878412 -2.3409863 -4.156783 -2.0069933 1.8903575 -1.7137558 1.1731138 3.8597271 -1.8431058
被 2.1545517 -2.009721 1.9654188 -2.5543225 -1.3573114 1.1606125 -0.37673637 -0.31660634 1.919319 0.4038981
家 -1.4770194 -0.42427605 -0.25566846 -2.2243972 0.73464495 -0.4703759 0.23964119 1.5322675 2.124215 -0.09549559
股 -2.5786662 -0.8439081 -2.4180083 1.9856839 -4.78445 -0.760347 -4.5312166 -1.5783776 2.375575 -2.500285
的 -0.92462593 -0.6067375 0.25464433 -0.9321756 0.38020232 0.89014924 0.33896422 0.33274403 -1.2841666 0.36895844
在 -1.4336864 1.0290594 -0.21719511 1.3404357 -0.24058425 1.0942707 -1.2107816 -1.0413268 1.8893954 1.7419381
网 1.217022 -0.9742431 -2.6042368 -0.1870796 2.793746 1.6746459 -0.77709734 -3.396992 4.17807 4.630579
女 1.2167424 -1.2127542 2.374742 -3.4273787 3.6778288 -0.19602571 1.2183881 1.5448304 0.11420087 4.3021016
期 -4.3608394 1.2768335 -0.54337794 3.0349689 -4.505891 1.20967 -4.877036 -3.5736465 1.4817497 0.43850327
房 -2.5391915 1.014674 -0.75526345 2.1447814 -2.3078208 3.9345274 -2.2762563 2.1753669 3.6824977 -1.0176897
平 -0.7929675 3.9075608 2.2619941 6.4427953 -0.42313153 -0.72553277 -2.1583397 0.2357798 2.0748775 4.328923
名 -0.26489967 0.31543884 0.9918226 -0.65367264 -0.91925734 -1.0851375 -1.0870457 -0.2755344 2.314696 4.72973
三 -2.5194218 0.04373479 -1.1818122 0.8831161 0.5190345 -0.6137391 -1.9223927 1.250745 -0.90696824 1.9077221
会 -2.2362921 0.35049897 -0.64417547 -1.6694758 -0.14800397 1.2206854 1.2891612 -4.07195 1.0512762 0.7029801
- 1.5237342 3.083968 0.106126085 7.5353 -0.3097444 -3.4821684 0.035701178 -0.12755215 1.0643444 4.3861074
地 -3.407461 0.23986939 0.4893563 -0.098881245 0.82256454 1.9861974 -2.5938728 0.46715075 1.3323694 -2.5039895
场 -2.346907 -0.5153113 -1.3251535 1.1814333 -0.3978955 2.6744983 -3.353853 -2.2828877 0.16506843 0.35208353
全 -2.6441195 1.782847 -0.17464134 1.3492614 0.024429837 1.3711065 -0.77495736 -1.0299312 1.5323949 2.116833
小 0.18992507 -0.35756695 0.16049945 0.5671951 1.1253139 0.042385865 -0.37648633 2.188186 0.22936413 -0.22790803
现 -1.6907568 1.4775616 -0.3053382 3.0995355 -0.96478575 3.4772792 -0.78351855 -1.4628931 0.25258532 0.5787357
有 -2.2534263 0.14780383 2.530858 -1.2912321 -1.9926516 1.4544247 -0.41092005 -0.9480424 -1.8115685 0.18802795
分 -1.9312598 1.2935338 0.42484915 0.63898504 -3.175392 0.29273775 0.07400886 0.21634589 0.0721468 3.425254
后 -0.914741 -1.0902292 0.61785924 -0.3776489 -0.9079867 2.3312786 -2.1977348 0.6777954 -1.3126945 2.4521823
称 -0.24275285 -0.6234852 1.0119874 -2.7136366 0.3273403 -0.86324996 1.2790949 -2.1994784 0.7160563 0.95919853
组 0.8100279 1.2142575 -0.98720646 0.64577734 -0.32602397 1.3043243 5.0467296 2.0307965 2.0250418 1.2164385
为 -1.0485113 -0.4751806 1.695434 -2.131338 -0.6457036 -0.014286735 0.20348212 -0.16828959 -0.39968348 0.10559369
盘 -2.1324997 -1.7021626 -5.0131207 1.7718489 -2.712788 2.6170847 -3.3562899 1.7731644 1.424152 0.40454277
下 -0.95336294 -1.2712481 -0.44756806 1.4093286 -1.5061264 0.57819873 -3.712867 0.84688866 -0.9731477 0.09315022
最 -1.8214719 -0.59094816 -0.95092905 0.52079934 -1.7463831 0.713704 -0.70049304 0.41461143 -2.4803638 0.7627893
“ -0.5715869 -0.8274276 0.29151648 -1.3483535 0.7338445 0.6619885 0.32264507 0.31996727 -0.82953906 0.42032528
” -0.0433437 -0.70254177 0.3497073 -1.3162662 0.9549511 1.319716 1.0961603 0.4203673 -0.5072929 0.6217556
手 1.7664247 -0.16422684 0.12718664 1.3298205 0.57967496 2.484686 0.9100294 -3.4352262 0.11135226 1.3047525
天 0.31528285 -0.81965786 -0.1848301 1.8579164 1.7860104 -0.5400175 -2.1372006 0.6490071 -1.8103573 1.511994
本 -2.635313 0.5004934 -2.4413311 1.1100829 -1.6903595 -1.6419721 -1.2798243 -0.6919237 1.5694968 0.7550368
利 -1.6189711 0.21229888 3.183558 0.104500994 -3.0136313 -2.9412603 -2.0148406 -0.99319756 0.03701566 -3.3252964
首 -2.6055255 0.55041087 -1.8725991 1.196732 -0.13623303 0.1388768 -1.7088349 -1.0936083 0.5630271 2.5123634
战 -0.15598913 -1.0366918 -0.98459476 0.45140576 2.1196132 0.1983007 -0.55453247 -4.42423 -2.109715 1.662498
长 -2.787263 0.12375647 0.8379693 -1.5460123 -0.5693915 -0.97329795 -1.5002145 -0.45649698 1.0541264 0.027595999
游 0.6406512 -5.242315 -4.6992726 -2.6054835 3.8882039 0.66280234 -2.2200909 -1.7925527 0.13692507 -2.342746
动 -3.4036968 0.009305141 -2.1886 -0.48844177 2.0477276 4.7547135 0.4310478 -2.845117 0.1797005 -1.6435416
主 -2.1408343 0.3356388 1.8543473 -2.542517 2.0268111 2.2735746 0.29177737 -3.4656298 0.53937566 1.2973652
海 -1.2354811 -0.3540754 -0.57440615 1.3153056 2.7793212 -1.0857437 -3.5053854 -1.5399523 1.3707495 0.007875902
起 1.1323466 1.0001609 0.38643944 4.045784 -0.60422426 0.6469476 -2.0033972 0.6700306 2.5080466 2.1420915
北 -4.9184813 1.0490124 -4.1271687 2.1840017 1.6675174 -4.041111 -3.0424595 -0.9515152 2.3028638 1.9769421
资 -1.8434737 0.18369848 -0.73049814 0.24797283 -3.7078564 1.4170372 -0.9127224 -1.0004663 4.660006 -4.460913
售 -0.18713017 2.442147 -1.0383376 6.695671 -3.8800437 3.8223217 -2.53729 -1.5986077 4.7048745 2.566627
能 0.5885119 -1.331779 0.27473602 0.27579865 -5.1288376 0.73334914 1.2761074 -1.1843921 -2.895651 -1.4056097
重 -2.3773084 -0.069768466 0.676404 -0.94543785 -1.6754282 1.5271136 -0.5161053 0.6303792 -0.5566683 -0.5997117
时 -1.0884404 1.125269 -0.13321626 2.1226418 -1.4040593 3.1283793 0.928259 -0.9337116 -1.3017968 1.5625677
男 1.9491904 -1.1658251 2.8067727 -3.0702302 4.5743537 0.21384436 1.0961424 1.3389672 0.56146437 5.873418
力 -0.29684132 -2.66461 -0.027754754 -2.2483635 -0.6589795 1.0858154 -0.31840894 -2.7762332 -1.6254313 -4.2663145
居 -1.7537359 4.2845564 1.253043 6.4266315 0.14537448 1.5291811 -0.9334453 0.6357876 2.2874515 3.6633244
报 -2.0592017 -0.760145 -2.7072787 -1.3450384 -2.45775 -0.08915426 -1.1530778 0.2700425 2.7568772 2.7226944
自 0.03729605 -2.8105128 -0.59587157 -4.649281 -0.91096836 0.17211206 0.5789652 0.9133051 0.65250695 0.96174425
点 -1.5613375 0.14578955 -1.4394906 1.7292403 -2.9078763 1.3255031 -0.96292365 -0.31181753 -1.1037399 2.5980113
. 2.1682065 -0.42818373 0.8278555 6.23226 -7.4035525 -4.1427956 -6.280212 1.5125167 2.7048223 3.650504
布 0.22862065 3.2979996 0.99502206 3.3855515 0.26940766 -0.423485 1.8931603 -6.2388554 2.633885 3.9183218
C 2.9662387 -0.8067598 -3.7126482 5.4033923 -1.6055954 -2.7004123 -0.49974176 -2.4195952 1.3873605 -0.26692805
前 -2.5362267 1.1416098 0.62890357 0.25604567 -0.7527974 0.53603584 -0.43555096 -0.95570064 -0.80341333 3.2573473
推 -1.3324428 -1.0851535 -4.222456 1.7710824 -1.1689966 1.3611225 -3.6043983 -1.3376966 2.756536 2.243069
产 -4.1084194 0.95288926 0.18931814 -0.3304827 -1.331137 3.8158576 -1.980898 0.273332 4.0285716 -2.605448
赛 -2.6382222 1.0138199 -0.57013744 1.5291647 0.03491043 -1.8004953 -0.76442534 -4.057631 -2.0129445 3.0100205
指 -2.290512 -2.714281 -1.0456594 -2.2488313 -3.8687725 0.29743904 -4.4158926 0.504989 1.1926633 -0.6028222
与 -0.102937855 -0.6342781 0.42196316 -1.3980955 0.84482914 -1.1376333 0.81162375 -1.1092241 0.069968015 -0.2769827
P 4.1224465 -1.6714698 -4.7796555 5.603763 -2.79302 -2.2400384 -0.08242423 -2.029529 1.1082728 0.5277037
是 -1.0891752 -0.5931499 2.2831602 -1.8786811 -1.5760118 0.6570216 0.93280727 -1.1625439 -2.9623668 0.36060414
京 -3.7091942 -0.024688344 -2.399547 0.16995 2.5933778 -2.4056268 -3.7368817 1.244567 3.1555145 2.0280244
方 -1.1332184 0.50600094 0.7035009 -1.2967168 0.56056416 -0.32765585 -0.266917 -3.029702 2.98875 1.0597012
商 -2.8937097 -0.43480536 -2.5530589 -1.4731832 -0.3165718 1.9058026 -1.3934485 -0.12271514 5.0447125 -1.8911492
S 4.1540174 -1.3381345 -3.0980868 4.7503147 -1.9928137 -2.7784297 -0.17294039 -1.3527322 1.4517581 0.43491593
多 -0.508462 0.0822632 2.0459595 0.1379577 -1.7456933 0.21593048 -0.71899545 0.8914294 -0.68531436 0.35383713
A 1.5650631 -1.243206 -3.6365497 3.6080685 -3.2226222 -2.0101936 -1.5977074 -2.035451 1.8006567 -0.23654142
理 -4.700175 2.3210504 0.92202985 -2.4327312 -1.8151021 0.90202767 3.3442168 -0.48712885 2.1393533 -1.3061606
内 -2.2333043 0.7404143 -0.7591519 0.5284703 0.5587965 0.85064137 -1.1110631 -0.7873576 1.6940559 0.43176398
华 -2.822269 1.4661069 -0.92633843 0.6155823 2.0382025 -2.9838266 1.0389085 0.6827742 1.180339 -1.3878732
入 -1.858984 -0.122252434 0.8607071 -0.614448 -0.8315116 1.6491336 -2.574426 -1.0843219 1.8049216 0.10578385
对 -0.3742467 -0.8005133 0.46077344 -0.95267636 -0.2255971 0.8094536 0.21706137 -4.59572 -1.0287083 0.1139764
英 -0.87088627 1.7430067 -0.9922936 1.3921205 1.885872 -3.3303394 2.1209211 -0.5704301 1.0003023 2.7490633
可 -0.8522776 0.2246927 1.1545691 0.17278753 -3.8395035 1.3399296 0.5798279 -0.9917382 -1.0400027 0.40435284
车 2.9345455 -2.1668324 1.5860621 0.5345997 1.1877296 1.4458643 -4.184795 -1.8254749 2.9738014 0.11355908
联 -1.8605957 0.35007405 -2.0604684 0.08732425 1.9204415 -1.730844 0.28563535 -5.5223293 1.0919093 0.9835222
斯 1.446387 1.6422026 3.1775532 2.2944794 -0.9065188 -3.7176309 2.352953 -4.6348944 0.6554165 -2.1982472
球 -0.9193761 -0.14305538 1.0842905 -0.110405 1.2760775 0.52468836 -1.7905432 -2.7625647 -0.511006 2.770722
部 -3.207083 0.5178754 0.6605078 -1.754792 0.14150284 -0.32020646 -1.7119004 -1.4785107 2.7133064 0.72077596
文 -1.2168105 1.6115934 -1.6973599 0.50499487 0.48302668 -1.4794997 4.3234673 -0.09427854 0.43268833 1.3129982
西 -0.4389781 2.0943635 2.2987568 3.2227418 3.6186638 -2.7849224 -1.3563366 -2.0315638 0.6747943 1.3289421
电 0.80332917 -0.946796 -2.7213924 0.33703038 3.0612936 2.6567693 1.0417756 -1.36039 1.7953309 -0.26523328
明 -1.2391047 -0.8825178 -2.156415 0.30098832 -0.11271377 -1.5815163 0.99335605 -0.8344451 -3.487641 1.3115458
加 -1.8512961 -1.4009542 0.09539825 -1.3430208 -2.0051553 -3.178179 -2.6803055 -2.888266 -0.14992896 -1.0250686
两 -1.8834993 -0.24824621 0.6258002 -0.019961257 -0.80553985 0.50977194 -2.8732567 1.2944857 0.4917804 1.5226943
品 -2.828134 -0.38260886 -2.3988678 -0.084719606 -0.85241187 4.436228 -1.0221127 1.620198 3.490921 -3.3222013
工 -2.1078842 -0.5687758 -0.739351 -3.3288457 0.34023276 2.0800838 0.12905678 -0.7857231 3.8688326 -0.0071280953
作 -2.3187366 -0.876119 -2.8129056 -3.156435 0.53640485 2.7353497 2.4953454 0.041845072 2.0960557 -0.805086
度 -2.3644073 -1.483622 -0.8123592 -0.40249577 -2.179938 -0.700815 -3.1331925 -1.7469784 -1.4329696 0.006492216
死 4.562381 -1.4571726 4.096887 0.42300877 -1.4861045 2.1352413 -1.7087637 1.224973 1.040557 6.475401
收 -1.4057102 -1.010686 -1.0602614 -0.48566148 -4.6448736 0.5582038 -2.8326828 -1.2695354 2.9400125 0.092728026
回 -1.6582612 -0.49665514 0.72833776 -0.6486251 -1.9746838 0.5739514 -1.0331395 -3.6159475 -1.6416646 0.61556315
情 -0.7685174 -2.9511812 -0.8950547 -3.9997203 0.8674559 3.2616444 1.2184113 -0.6860469 -2.1999993 -0.94682306
招 -3.6904402 -1.487578 -1.93587 -3.9742627 -2.463795 -1.3708018 -2.625165 0.018694282 3.3114564 3.7855015
法 -0.6273845 -0.28044215 0.7673128 -3.5276358 0.516255 -0.5474439 1.368847 -2.425327 3.3647628 0.8410132
i 5.868432 -3.0338583 -3.027485 2.3201141 -4.7595615 -2.2753217 1.820187 -2.0774622 0.5442438 4.583679
城 -2.9508333 1.0612646 -1.2524252 2.18688 1.7019627 -0.5923983 -2.3707483 -0.21748242 1.208238 -0.01630448
交 -3.3891025 2.3199792 1.3809247 0.9669857 -0.64923686 2.0545008 -2.5764983 -4.2715774 4.4346123 1.1658565
通 -1.1371388 -3.1318104 -3.3878372 -2.1032608 -1.8741902 -2.3497512 -2.7789683 -1.0457287 1.8869767 -1.2085056
东 -3.6245055 1.3055023 -1.8333682 2.153845 1.5211256 -3.0276358 -2.148317 -1.7465371 1.3065809 -0.1945162
周 -2.7004354 0.16473134 -1.9377028 2.5769875 -0.9414196 -1.1802539 -2.633718 -0.4464947 -1.8708136 1.7860764
强 -1.0973244 -0.4559357 1.629582 0.25589594 -1.4426466 0.35059896 -1.5713822 -2.0852559 -1.9990832 -0.7065371
民 -2.6344125 0.62631595 1.5212226 -1.7134218 1.2794348 2.5820036 -2.6022668 -0.23239134 4.5732884 1.2760799
之 -0.29115558 -0.80993944 0.045382727 -0.31349328 2.656338 0.8360973 0.3039197 -0.19860032 -2.1039915 0.61456835
数 -2.035742 -1.4526341 -0.5235552 -1.2880297 -5.140747 0.6635944 -2.5610404 2.4273038 1.1630352 0.010630081
打 1.6133177 -1.7071868 1.3442471 -1.0235779 0.5425665 2.704364 -1.088158 -0.14038791 0.557475 0.24258356
亿 0.42207003 1.1307536 2.357282 3.3822625 -5.0754495 -3.8171625 -4.631399 1.5252684 5.609507 2.060584
科 -2.4555686 0.535228 -0.25951758 -1.0238782 -2.811937 -5.1683874 0.7847413 0.79189765 1.255158 -0.26921254
用 0.2291951 0.35833994 0.47957233 -0.3963605 -0.8546158 1.7102361 1.1119463 -1.12734 3.0948305 -0.98723
经 -2.9495366 -1.9841745 -4.117435 -3.4641914 -2.9899838 -2.9611466 1.0719197 -0.72026116 1.7229629 -2.2829735
% 0.68634516 0.29955387 1.7677808 4.5418224 -5.862661 -3.4254894 -5.3162365 0.28869745 2.0071216 3.066329
线 -0.96225965 -0.7597086 -0.88745457 1.3547714 -1.1568632 0.87583697 -3.134501 -1.5132039 0.27921882 0.87060803
第 -3.0697534 1.5682191 -0.48332736 2.5000803 0.5173014 -1.7576202 -2.3344467 -1.7182426 -1.2146 6.194098
合 -2.0198758 0.14609683 -2.6351016 -1.213451 -0.9334079 -0.06725727 2.0051508 -2.4222085 2.013096 -0.089864045
马 2.4816058 -0.44379696 3.0559695 1.5188833 1.8439978 -2.6177635 0.28750202 -2.9118977 -2.125176 -0.9470259
O 5.159237 -2.3339748 -5.65323 5.7892804 2.0018144 -3.3747637 0.6496446 -1.1117742 1.170739 -0.50534123
山 -1.8738964 1.2669053 0.39172527 3.0781791 3.37108 -0.7703161 -2.0831861 1.6083741 0.83331335 -1.7769611
调 -2.505182 -2.3247187 -1.9730659 -1.7501132 -4.859675 -0.1554468 -2.742765 -4.3456097 -0.07812779 -1.0707897
超 -1.3417511 -0.10952437 -0.08112879 1.9383563 -2.71634 -1.276554 -2.1113575 0.0937655 -1.5670421 0.42297992
体 -0.21206047 -2.056153 -3.3544166 -3.4227016 -0.028673207 0.48813757 2.1820047 -1.3012246 2.401642 -0.11779721
o 7.129639 -5.9503193 -5.2872844 0.37294376 -1.3646587 -5.777717 1.4707628 -0.24266438 0.15283416 5.9232345
世 -2.48159 1.3107668 -3.7948327 1.2050616 3.6781697 -1.3538351 3.5330284 -1.0181433 -1.2241969 3.3443124
专 -4.810789 2.8424761 0.029444998 -1.8485179 -0.10635003 0.771179 1.6475766 -0.42721882 5.2547555 1.5968349
员 -2.0217278 0.37536192 1.6092126 -3.6256356 0.7359271 2.077299 0.5891682 -3.2494092 3.0925999 2.6743762
总 -2.803924 1.0268856 -0.6395859 -0.92382956 -2.6930287 -2.069643 0.14400017 -5.249402 2.7723377 1.2352072
个 -1.7911925 0.37561813 0.03713021 1.125494 -1.601138 0.22309133 -2.5564504 0.8766706 0.19527991 3.7484283
无 -0.45796195 0.17794605 1.9505622 -0.779158 -1.1939104 1.6795247 1.1306587 -1.3270036 -1.2149361 0.6835192
要 -2.3467257 -1.0389513 2.2825377 -4.527474 -2.1418245 0.7474896 0.558359 -1.7650311 -0.7452354 -0.18766095
D 4.189209 -1.3510538 -4.1160064 6.2216115 -3.034532 -1.6034919 -0.59325814 -0.67828465 1.4518551 -0.1719057
e 4.380788 -2.6199386 -3.0750875 1.0681792 -1.6331025 -2.6002717 1.1588724 -1.8257264 1.2228352 4.6772766
外 -1.8168881 -0.776503 -0.24600857 -1.9881767 1.7647349 0.51759726 -1.4229615 -1.4018564 1.8937001 -0.50027615
定 -1.9420792 0.8357383 0.5467233 -0.22049181 -4.5360484 0.24899502 0.5793065 -3.9220488 0.41830802 0.54316896
级 -3.2126594 0.76076645 -1.491135 2.4949543 -3.3290954 -0.8599778 -1.9583948 -1.3835816 -1.4411879 1.1984221
老 -0.112459555 0.91458106 3.3502812 -1.2832919 2.862298 0.7990075 0.6065065 2.3403971 1.471394 2.476197
传 1.7380266 -0.8974071 -1.9257332 -0.137483 3.4162133 -0.06436706 3.0057588 -3.6355264 -0.63209754 1.783571
军 -1.3188758 1.090883 2.5997486 0.20286027 2.7559056 -0.32156178 -1.0017824 -3.525501 -0.0693446 1.3731972
信 -0.554568 -1.0435045 -0.46008557 -1.8503565 -1.0868078 -0.5951806 -0.17259146 -1.5235131 2.856575 -2.638227
试 -4.109328 -0.36760423 -4.7284045 -2.2438571 -2.1709037 1.9457763 1.2184789 0.21743819 1.6656086 4.476736
再 -1.4304905 -0.16705646 -0.16553791 0.9637225 -1.4081556 1.445607 -1.1978598 -1.4051446 -1.402244 0.4618316
王 0.25031298 0.07691468 1.5264502 0.21789613 3.1214283 -0.6034951 1.356752 0.47181734 -1.6266387 -1.0087826
建 -4.6629333 2.3714502 -0.007441951 -0.55130845 0.8910237 -0.17422311 0.2465995 -1.6206794 2.7856357 -0.023701107
持 0.2529761 -2.2799733 2.9135888 -1.8697416 -3.3771327 -1.4460418 -4.289034 -1.7962538 1.3164728 -1.4396642
星 -0.4485462 -0.66239446 -1.828805 1.4253117 2.896143 -0.6645306 0.026879052 -0.32831666 -2.3770971 0.6797958
热 -1.0562941 0.47791556 -0.24947442 1.9504995 0.9494457 4.8182483 -0.6905586 -0.7699821 -0.5768674 1.2851003
遭 1.747522 -1.6704965 2.4788852 -1.586362 0.5594333 1.4975513 -1.2036844 -1.1348075 1.2394087 -0.7006843
进 -2.2531636 -0.24300963 -0.11491174 -0.33842087 0.2456228 1.8439747 -2.5033023 -2.5834274 0.79294556 0.87597746
获 -0.27412137 0.47265884 2.1324434 -0.711025 -3.153782 -0.5968315 -0.09611096 -0.39644766 1.6014884 1.3027627
心 -1.1398625 -1.1303365 -0.4270314 -2.645348 0.5528309 1.3106232 1.6104989 -0.70301807 -0.4571106 -1.1913191
巴 2.5945158 -1.3446785 2.9041142 1.0809953 0.24495937 -5.522014 -0.9134794 -5.664998 -0.6820752 -2.9215076
亚 -1.7990768 1.9831039 3.03286 2.1072097 1.5366429 -3.340905 -1.3936963 -3.3732433 0.13269782 -0.85844725
I 2.52953 -1.8351518 -5.6569467 5.662578 -3.449777 -2.3461833 -0.8567572 -3.042657 1.0956392 -1.8949997
比 -1.6817095 2.1405942 3.402059 2.0667832 -2.2695725 -1.9337952 -0.30837217 -1.3092349 -1.2867205 0.03831428
投 -1.1643194 0.16706279 -0.6939923 0.92524457 -3.0273376 0.99100256 -2.045329 -3.3719664 4.475526 -2.2323282
四 -4.1264925 0.1664724 -1.1366307 0.27430084 -0.1338683 -0.9874173 -2.554549 1.8340108 -1.1186423 2.0788188
门 -0.44988567 -1.295974 -0.22574462 -0.82406455 0.61725986 1.0381444 -2.2174757 -0.6801895 0.8650684 0.96211195
涨 -1.1356883 -2.3218615 -0.6629128 2.8720672 -4.2732043 0.7956014 -7.1202145 0.21201436 -0.45242918 -1.4404467
戏 1.6428086 -0.5680851 -3.2455049 1.1402214 4.2709336 3.6741774 1.3550593 -2.0649269 2.5921013 3.8202844
身 1.2528609 -2.0072796 -0.58795375 -0.0840117 -1.214884 3.4334424 -0.6906422 1.7062637 -0.34262693 0.14802295
保 -2.0313013 0.5899598 3.931618 -2.224208 -0.8932143 -0.22326095 -1.159861 -0.2192889 2.5735087 -2.3987048
尔 2.2063744 0.67356414 3.621095 2.0194583 0.98846525 -5.1467404 1.3024476 -2.9847424 -1.112916 -1.3384925
光 1.5045387 -3.763388 -2.9039152 -1.7368777 0.4063092 -0.8547731 0.80378425 4.5453286 -0.8249306 -2.7102706
安 -2.0207267 1.8776921 1.8398572 0.03846457 1.2805027 -1.4478626 -0.25431314 -1.6006972 2.3436499 0.8771566
评 -3.0154572 -1.1345779 -4.3396354 -0.48741433 -4.6648974 -0.43499318 -0.71975696 0.61957943 0.8725896 0.6418048
研 -4.8160133 1.0004113 -1.7177647 -3.0707743 -3.2578313 -2.1636713 1.0270369 -0.9710504 2.4326622 6.939345
受 0.58244354 -0.9379674 1.9409086 -1.3172252 -3.3239653 1.239186 -0.30114132 0.26118267 0.17430474 0.92511487
计 -2.3595035 0.7386657 -2.9923666 0.83007777 -5.771321 -1.2215302 -1.0574133 -5.35831 3.601251 4.1935368
来 -0.82470024 -1.0340478 1.1763966 0.042071953 -0.98652244 0.40869862 -1.8399556 -1.3988595 -3.2122622 1.9298817
台 0.3442343 -0.54607725 -1.8064018 1.441265 2.7778609 -0.6675302 -2.0958753 1.6518344 3.5839984 -0.50448066
续 0.51065737 -3.6226373 1.6361052 -1.914629 -2.624275 -1.3591632 -5.172885 -2.2589252 -1.0749135 0.48075595
事 1.100218 -0.56676656 3.1576722 -3.330737 -0.4344207 1.3832171 1.7470328 -0.95929694 3.3170638 -1.8825079
特 -0.35206988 2.2747917 1.6116548 2.299633 -0.649058 -1.0054439 2.48117 -1.0852863 0.0699518 -1.1507356
预 -4.449642 1.598915 -4.258734 1.1401275 -3.6769893 1.5516268 -0.007443253 0.56375295 4.151894 1.2045537
面 -1.4114523 -0.2635044 -1.8192619 0.59563476 -0.7186724 2.4155684 -0.18865873 -2.305156 -0.44454664 1.1508548
a 6.8565855 -4.307287 -3.59877 0.7136318 -3.4812853 -4.1378436 2.4898834 -2.0908382 0.88810354 4.474849
T 3.2409606 -1.3484986 -4.7066793 5.0674386 -2.820544 -2.5472867 -0.56624407 -2.024968 2.1849062 -0.27660477
关 -3.3877113 2.2837281 2.2065732 -0.6502888 -1.5273961 3.2296116 1.5070636 0.12110352 0.6859605 0.73995227
政 -7.8146067 4.399499 2.8286836 -1.7748672 -0.18448973 1.3290976 1.2677099 -2.9392295 2.797716 -0.13698666
校 -4.545786 -0.049810573 -0.5177603 -3.8126984 -1.3030928 -1.3198692 -1.8391306 1.3713919 3.4289005 3.878732
者 0.9894361 -1.6609478 1.0070051 -2.7436244 -0.5083046 1.566588 0.98713267 -1.3550342 0.71414727 -0.28700766
司 0.016756583 2.8504136 2.0899436 1.9334581 -0.5971675 1.9058021 0.07571605 -5.8245916 5.6330595 3.0335925
增 -3.5488057 0.10556006 1.5887226 -0.098857306 -4.8950124 -1.9395934 -4.223717 -1.9420062 1.0005932 -0.58453065
n 4.483627 -5.0726056 -4.074451 2.4372282 -3.398405 -4.813563 -1.2454494 -2.5846913 -3.829235 5.0593333
购 -0.48004198 -1.2270911 -0.050625093 -0.8855613 -3.1311038 0.44057575 -2.4188266 -0.037795916 3.3610103 -1.8940787
南 -3.4186668 0.12993354 -1.508728 0.19816719 1.8011054 -4.2050486 -2.6649747 -0.9515479 1.2825495 0.5020078
精 0.012710367 1.8951883 -1.6895252 4.1987123 3.7696297 2.5843139 1.7491276 0.8585079 1.4138528 0.90189785
二 -4.10139 0.7239353 -2.2359486 1.6438034 -0.40497532 -0.34961396 -2.2517748 1.0846404 -0.91873014 3.0914369
选 -2.4149365 1.1292546 -1.0161264 0.2640846 -0.2690906 0.90290946 0.78720194 -2.299438 0.051230855 2.6319158
火 2.334596 -2.48922 -0.77502954 1.8004762 1.6504183 3.00958 -2.8702989 -1.8693378 -1.6279529 2.1427095
港 -0.9092978 -1.227376 -0.9509634 0.306497 -0.20874427 -1.7501462 -4.126138 3.0532382 4.1736784 -1.5592613
队 -1.020889 0.83853203 2.423067 -0.8193163 2.3167517 0.36462706 -0.48671228 -3.2327132 0.47094998 3.0967896
装 0.91580576 1.0551717 -2.2966418 3.3315985 2.5595717 2.8422072 1.2855692 1.9325129 3.5218441 0.78633136
低 -2.1966743 -0.71506155 -1.7581755 1.7287407 -4.3192725 1.843885 -2.215273 1.0102198 -0.71311074 -1.3321245
跌 -0.06610695 -2.565128 -0.02150345 3.1226099 -4.8960123 0.6553157 -6.68366 -0.015969692 -1.2440524 -1.0712714
视 -0.58603424 -2.2992277 -4.5443983 -1.0322468 1.9621624 2.5435603 0.039904688 -0.5757164 1.7137668 -1.2980407
G 3.3411224 -0.7048376 -3.6628203 5.64407 -2.064309 -1.6349386 -0.7191618 -1.3993267 1.6505669 1.0299773
升 -2.2833846 -0.8095113 -0.6409037 1.9810932 -3.6544545 -0.4577375 -4.1016645 -1.2895707 -1.2477385 -0.956996
证 -2.2659967 -1.2485708 -1.5402055 -2.6314323 -3.5643163 -1.8989781 -0.97963136 -1.470193 3.4207838 -2.2944243
L 3.4066377 -1.6708895 -5.8500457 6.5090904 1.457377 -2.0719824 -0.5674832 -0.43917644 -0.272342 1.6050323
反 0.841518 -2.0983498 0.18150583 0.14111726 -2.9864445 2.1767442 -1.6681619 -4.609693 -0.9461497 -1.2611351
实 -2.0175018 -0.21947353 -1.790131 -1.3400772 -1.8522643 1.5864675 1.7596891 -1.0070746 0.61337024 -0.9164724
变 -1.4154223 -1.5213926 -0.97806287 -1.5941055 -0.40545171 3.011298 0.9616563 1.2460108 -2.1039941 -1.2864507
水 -0.72507095 0.08480251 1.2911061 1.4297144 1.4733025 1.8892722 -1.6044942 2.9241605 0.10522572 -2.5024738
德 -0.67378193 1.3613659 2.111703 0.4750289 1.4825267 -3.7946272 1.9828117 -2.3614023 -0.43324596 -1.3710754
均 -1.9811019 2.356637 -1.1235962 7.2511883 -5.6288543 3.189323 -3.944114 2.422026 4.2409043 1.5999622
米 1.6652689 2.131843 2.4728272 5.761384 0.9490154 -2.0296926 -1.3273803 0.104586266 0.8733475 0.25929958
尼 5.088583 -2.5538352 1.7984233 1.517614 -1.5955828 -5.080518 0.038261168 -2.953698 -0.6609043 -3.7590013
阿 3.215313 -1.5197524 1.9079311 -1.098298 1.473052 -5.84025 1.9094671 -4.183356 0.002034025 -0.8831158
头 2.5703301 -2.188411 0.80196214 1.3499914 0.36979714 1.6758069 -0.91234213 1.3169512 -1.9787114 -2.6189609
提 -3.1165323 -1.3551568 -0.867519 -2.9613354 -3.1053813 -0.90576667 -1.9936931 -3.0558734 0.752928 1.0309246
楼 -2.2010489 0.46923256 -0.64687735 2.9555526 0.34427953 4.064126 -4.2836576 2.5108979 1.5330027 2.103433
次 -1.3845702 0.11016952 0.11961119 1.2705251 -1.6852793 0.25123534 -2.7047086 -2.8461802 -0.5753177 4.348339
E 3.2836747 -1.087745 -4.6596446 5.66521 -2.5003867 -2.481652 -0.5632551 -1.4419663 2.2194986 0.15391104
货 -4.0980763 -0.053893544 -1.5174814 1.1374081 -3.581339 3.7809808 -5.078387 -0.0055289646 3.7750134 -0.45779985
复 -2.9507296 -2.0811603 -2.7304077 -3.0460267 -1.7558832 -0.18123169 -0.6536026 -2.0529714 -1.1806077 1.53183
银 -3.079001 -1.4983393 -1.8211207 -1.7600337 0.3822857 -0.46838224 -3.7137072 -2.1289473 3.7650557 -2.8652358
相 2.08495 -1.0919394 -0.7737878 1.6474476 -0.083927974 2.1761672 0.8696369 -3.5107434 -1.7628025 0.8046673
好 -1.7987103 0.2922328 2.0927594 -1.6478719 -0.2075686 2.117483 1.4728458 -0.20617439 -1.8045969 -0.06574087
务 -3.1407642 2.190732 0.036971573 -1.9046522 0.38283 2.4602506 0.6986362 -3.9372044 7.235808 2.1591852
过 -1.9901398 0.3533017 0.73970306 -0.06573332 -1.6190112 0.38904443 -0.9744628 -0.37859008 -0.6549674 1.5777981
格 -1.2161522 1.4340296 0.9568961 3.319649 -3.3770366 -0.08229023 -0.17600442 -2.2469208 -0.25783318 -3.622295
季 -6.4851165 3.2930276 0.17786866 4.052835 -1.3067558 -0.13945456 -2.4064581 -2.7003617 -2.9773262 3.1150968
空 -0.62146544 -0.42820868 1.1122065 1.2094715 -0.14039062 1.9845372 -2.5469387 -1.9247632 -0.93505365 -0.0834063
友 0.39469507 -4.042053 0.60120153 -6.563765 3.585359 0.7172146 -0.14879918 0.53564715 0.11292128 0.8665039
性 -0.8072367 -1.3638672 0.1911452 -2.0612917 -1.4483839 2.3893297 1.287036 0.012643 -1.512402 -1.1819835
意 -3.2539911 1.3407997 3.4535096 -2.715078 -0.42550254 1.2782192 1.319648 -0.8654171 -0.0018373065 -0.6123127
卡 3.3158162 -0.3958079 0.98324484 1.9893636 -0.33198026 -0.72960955 1.18933 -2.0707994 1.2081641 -2.2080414
解 -0.6349398 -1.1623362 -1.1854782 -2.8399167 -3.6846259 -0.53745586 2.4214365 -2.93236 -0.06006294 1.6441705
折 1.8498627 1.8204199 2.4651642 5.6205926 -5.264429 1.8535464 -0.52479714 1.6984607 -0.15742515 5.397395
因 0.7489773 -0.77730006 2.9831014 -2.3686855 -0.47121564 1.0938002 1.1367718 0.27995133 0.6574887 -1.4420485
风 -0.23131514 -0.78189015 0.4803091 0.6396291 1.368871 1.8004855 0.12845019 -1.2773494 -1.1108617 -4.8904057
克 1.3819177 1.7212892 3.7730877 2.859847 0.96953756 -3.0978117 2.0532422 -3.2269878 -1.5926666 -1.0947024
同 -1.7230487 -0.039580677 0.9762173 -1.9014579 -0.59462494 0.28626856 0.21222219 0.55687773 0.22622629 0.9772954
红 -0.06539513 -0.091377385 0.81819457 1.6740167 1.9113315 1.2832657 -0.81116676 2.2250395 -0.89755505 -1.5325756
化 -2.5518823 -0.11593597 -1.364189 -1.1958597 -0.109440155 2.1359875 1.4278878 1.0659584 0.11291078 -1.9698433
户 0.69796383 -2.5054839 -2.0497918 -0.6127451 -1.5958508 3.0612757 -2.013477 4.2229705 4.166877 -2.7364032
广 -0.2891565 -2.8002136 -4.0282307 -0.46207845 2.1596947 -2.4565945 -3.536263 1.0892392 3.1346474 -0.8418229
录 -1.9466177 -1.9350545 -4.815619 -2.723468 -4.768805 -2.6436737 2.2142448 1.5813392 1.0996379 1.5824586
师 -0.7572011 -1.827503 -0.796627 -4.8321657 0.4452782 -1.1905979 1.9831662 0.8840834 1.3638668 1.0523208
曝 1.6153064 -2.6413257 -1.6771146 -1.9371887 1.2049748 1.1504787 2.0353103 2.1354175 -1.3864931 1.0671183
单 0.51570576 -1.7301059 -0.9431892 -0.8214702 -1.4999542 1.1431274 -1.1762578 -0.10575196 0.76332134 1.0659999
区 -3.1034663 1.352425 -0.5439857 1.258591 1.692701 0.98210424 -1.9967765 0.057254232 2.3197398 0.3850533
和 -0.8382054 0.28445476 0.24112248 -0.21860382 -0.039585937 -0.83089846 0.5038055 0.10032274 1.1186268 -1.1268836
走 -0.7664282 -1.5229913 0.61468506 0.12841597 -1.5595809 1.6935982 -2.6796448 -0.29517692 -1.5288374 -0.7709966
拉 1.3029068 0.030380586 2.5961301 1.6168756 -0.12620094 -3.8483517 -0.13257131 -3.873913 -1.0987483 -1.9564382
乐 -3.0725896 -0.5065456 -4.5820565 0.05916432 2.0578997 1.4025098 0.7192103 3.2646677 -0.6271825 1.5113351
难 -2.122311 0.0139717255 3.0146127 -1.9830481 -1.818262 3.396469 -0.11527788 -0.9374138 -1.1420807 -0.29333082
演 -0.3532021 -3.2575169 -2.45084 -3.2477374 2.8223288 0.110663384 -0.25292137 -2.853046 -1.6309854 1.0921932
击 3.1627815 -1.0451162 2.548308 2.085044 0.0650171 1.4213394 -1.9504228 -4.6759753 -0.7591632 1.650638
款 -1.1400313 1.3487318 0.96685714 1.5797441 -4.151868 1.5600525 -2.4821148 -0.9779028 3.9705963 3.648147
题 -1.2042179 -3.307767 -3.8256857 -5.3072987 -2.4735253 1.061266 3.7481225 -0.8703044 -0.012356234 -1.7104421
未 -0.9372225 -0.59588116 1.4994903 -1.249086 -3.1592035 1.3848293 0.1942194 -0.9572006 -1.8526207 1.1994377
院 -3.0711246 1.0951167 1.0283673 -3.27248 -0.6321584 -0.5095572 -0.1340433 -0.29931074 4.7198443 4.1574607
取 -2.015693 1.060372 0.45817113 -1.0761466 -5.067978 1.242817 1.5528709 -1.1231502 1.3921151 3.145785
告 -1.2622892 2.1947906 -1.0961555 2.3385055 -1.5806904 -0.022427425 0.86791986 -5.867532 2.2733958 3.079383
板 -0.7226086 -1.1280901 -1.2346411 0.83306265 1.0550753 3.5040927 -3.1904845 5.0159516 3.1049669 -0.52420163
创 -3.34097 0.33285725 -1.8345512 0.35472828 -1.2627606 0.95953315 -1.4028432 -0.4341315 1.0568821 0.00484925
制 -0.9103034 0.045513883 -0.33011854 -0.516689 -1.9303614 2.9414499 0.7177057 -2.977339 1.4817332 -0.20817703
议 -3.839882 -1.1519021 -1.0553695 -4.493508 1.1983582 1.0292984 -0.3717559 -6.0812445 1.2928344 0.63396776
M 3.4645758 -1.2898802 -4.6085563 4.8678613 -2.6387608 -2.3655949 0.7640854 -1.6753628 1.2463502 0.29544425
型 -0.26064765 1.2441341 -0.6252793 2.3876014 -0.56383264 3.5061922 0.6354764 0.29109564 3.5961514 -1.7501521
代 -0.78569865 -1.8350985 -2.7364721 -1.2072225 -0.51918346 1.2937318 0.5698291 -0.56233764 -1.3040283 0.9244715
神 2.5757544 -0.6200274 -1.20041 0.98062444 4.15252 0.8123105 3.4775963 0.11877815 -0.9312343 0.8187099
到 -0.5181294 -0.89062387 1.3230933 -0.72108066 -1.8693333 0.65871227 -2.024663 -0.4215615 -0.43789226 1.7234352
伤 2.4979637 -0.3200997 5.7958655 -0.47530276 -2.3448133 2.5234318 -0.4151941 0.6751431 -0.30569407 3.5667567
应 -1.8638153 -2.174769 0.14064366 -3.805296 -2.7140405 0.29332992 0.25031763 -1.9336985 -1.1032685 -2.4744287
势 -3.3737159 -0.89579886 1.0610611 1.2147543 -4.2034965 3.7014601 -1.82397 -2.416022 -4.3061247 -4.850609
活 -2.6269507 -2.0505373 -3.3314834 -2.813714 1.6390439 3.1118698 0.11362065 -0.6097676 -0.0579751 -0.4855024
已 -1.2669832 -0.14360337 1.2933086 -1.2286466 -2.1365256 1.5731313 0.050324265 -0.9369003 -0.3143862 0.5667101
放 0.6161764 -2.681685 -2.54985 -1.1610475 -2.0864468 2.5967135 -0.975606 -0.04589513 1.0624324 0.13509682
费 -1.1858127 -0.6601167 0.8485014 -2.6917906 -4.106019 2.364009 -1.1748489 -0.90723085 3.849462 1.1548814
士 2.2641163 -0.72162104 0.14316402 -1.2031167 2.193151 -3.982242 2.1357582 -1.1287616 2.1492367 0.73539203
杀 3.8577902 -2.5929317 2.1987584 -1.4834025 0.43670315 1.6037773 -0.26270148 -1.4153152 -0.8260178 3.7914827
教 -1.9870683 -1.6393039 -0.7150613 -6.49418 2.5588098 -1.0158299 2.138377 -0.3291359 2.1583717 2.5856562
至 -0.68529063 -0.230045 1.1533855 3.2973766 -4.813948 -1.0931501 -4.319426 0.5629558 -1.4513432 2.3150864
看 -2.240386 -0.43052608 0.9902548 -0.9837898 -0.95809627 1.5290695 -0.870754 0.5349194 -1.8234931 0.114317395
结 0.2617833 -2.4745274 -2.3011808 -2.9897387 -5.2055635 0.5765512 2.2001288 0.016938267 0.25996885 0.90094906
我 -1.2810692 -0.95821923 1.8056557 -3.3297558 0.31002218 -0.20427985 2.2511458 -1.2967924 -3.539426 1.325174
认 0.6134615 -0.5581248 2.4599066 -2.0343668 -5.6372523 -1.2886322 1.5360134 -3.75455 0.14552777 0.64056516
州 -3.953798 1.8859882 -3.1727052 3.6465712 0.55392873 -2.7874126 -1.5409143 -2.413579 1.1017119 0.45320106
界 -4.4586654 2.1376212 -2.8427804 2.0259986 4.6066475 0.53571326 1.7061615 0.15782626 -1.7907301 3.7383645
查 -1.8680336 0.6909045 -1.4177629 0.097949 -5.3015785 0.067254946 1.8193206 -4.299415 0.8830436 1.1627059
儿 1.4949975 -1.2359396 2.5524285 -3.398855 3.7551577 0.09123089 1.9591033 3.392595 0.13022338 3.3370109
达 -0.560061 0.94422925 1.4393796 1.4876621 -1.9786447 -2.6764202 -0.7444938 -1.2970015 0.6358001 -0.11511725
目 -5.097831 2.0481248 0.14596069 -0.07254904 -3.2866774 2.5227642 0.91516364 1.4583341 -0.5993297 1.333967
林 -0.0026748073 0.86086226 1.1468772 1.0810033 1.8491148 -3.7945893 2.2252512 0.90037584 -0.9477052 -1.7611127
向 -1.5349543 -0.2932598 0.63323706 -1.0036628 0.03450598 -0.058811497 -1.0230579 -2.5409613 0.49469772 -0.6474546
别 -4.1077347 3.2867002 0.6913685 1.4735374 0.43992358 0.7635482 1.4537487 3.3153243 1.457814 0.74659485
案 1.1222204 -0.39228857 0.9707787 -1.7388788 -2.557125 1.148968 1.1377469 -3.495341 3.0870032 1.9595784
奥 -0.25595728 1.8591455 2.4747226 2.2129896 2.6873455 -0.77539337 1.083428 -3.646686 0.06534544 -1.6768119
降 0.0260575 -1.1752981 -0.18181726 3.1247406 -3.9602606 -0.015885709 -3.6466377 0.00278421 -1.6406649 -0.75288707
里 2.2985172 0.66253906 3.125942 1.6371078 1.6656473 -2.7094507 0.6937392 -2.167726 0.4896918 -0.23599772
领 0.11963761 -2.2768903 0.4436667 -0.54237866 -0.022934483 -0.897174 -3.5448408 -1.1086646 -0.07826501 -1.7476281
统 -2.1812673 3.0230045 -0.33938637 0.10279544 -1.3529943 -0.16420099 4.7277 -3.4784474 3.26006 0.99886596
正 -0.6288955 -0.13966495 -2.372446 -0.06622708 -0.3886817 1.1901504 1.193215 -3.1056054 1.936631 0.06505657
婚 -0.6297679 0.30835137 1.1269412 -2.0234113 0.18669835 2.4870338 3.7768214 -0.8142222 -2.0056286 3.643906
当 -0.67184687 -0.5699386 0.84707123 -1.49231 1.0050528 1.0147374 0.5709641 -0.64533633 -0.9051209 0.3273691
销 0.11924105 -0.8977304 -3.944433 3.1527567 -3.118221 4.0019383 -2.7572486 -1.2017583 3.6421704 0.34963572
岁 2.275051 -0.23542424 2.9218235 1.3442699 0.7391592 -3.3970919 -2.1393027 4.3548937 0.5402476 7.3923335
罗 2.8035347 0.15474285 2.2218158 2.174623 0.33338776 -4.445719 1.5276053 -4.391044 -0.2608163 -2.0980022
双 0.82717454 -0.18508027 -0.04476202 2.112849 0.38192028 0.51582664 0.03318436 -0.53907895 -1.404878 -0.0141148465
连 0.13672912 -1.0237532 2.6128106 0.82644224 -0.43665305 -0.83918387 -4.0735703 -0.8154766 -1.5136089 1.1805317
半 -2.252011 -2.0084615 -1.1655608 -0.20377162 -1.0420185 -0.07847594 -5.4999824 1.8657686 -0.17471273 2.7130582
警 0.98581856 -1.461153 1.30878 -2.5758786 -0.5137326 -0.5702296 -2.5857544 -4.803302 5.055419 2.606948
展 -2.2983344 -0.34384152 -3.6462653 0.51740706 0.6609662 1.808682 -0.75978535 -3.2798953 1.3291047 0.6121615
测 -2.8194556 0.8741094 -4.8561683 1.6568385 -2.9122348 0.73934853 0.451755 -5.7208986 1.8436491 4.1164165
影 0.77530956 -4.0576663 -4.1617823 -2.197393 1.0738463 2.0175552 0.30395573 1.112746 0.058727734 -3.0726266
间 -1.8280694 -1.9005551 -2.121446 -0.85644436 -1.6907214 4.293538 -2.7765572 1.086751 0.4991862 1.99391
张 -0.772023 -0.74205685 -0.2746222 -0.2643403 0.13518424 -3.2678304 1.2865541 1.729758 -2.6826022 -1.433944
式 -1.1371593 0.5762365 -3.0038886 0.5377153 -0.542798 2.531414 2.2587988 -5.070483 2.1852725 0.6855902
致 2.0916438 -1.5440118 1.2443389 -0.27638286 -0.13000998 0.50113195 -1.6013719 -0.085074544 0.7865476 1.6336886
今 -2.877871 -0.02693811 -2.7476387 1.319267 -1.7934767 -0.991563 -2.4446435 0.2979679 0.27478588 2.859661
花 -0.63347673 -0.6929489 -0.20963171 0.71415716 0.8051116 -0.45870575 -1.5689777 4.7346783 0.62409323 -1.6677432
望 -3.9602208 -0.051841445 2.8288608 -1.391094 -1.4429516 -0.96125406 -1.7255801 -1.695541 -4.387319 0.76765925
B 2.6267521 -1.7405952 -5.4820356 4.9048986 -2.8474772 -3.087648 -0.88258356 -2.133286 1.4467002 -0.3122328
亡 3.9343858 -1.4370862 5.2396374 -0.06717667 -1.9349613 4.9573846 -1.8300288 3.313703 1.5975047 6.1645927
位 -2.9703982 0.5974683 1.0834122 -0.24478705 -2.346573 0.3661041 -2.4780974 -0.3137845 0.70487416 1.8644435
争 -0.54276294 1.1137363 1.797726 0.7054913 3.4705894 2.39868 1.1294296 -4.561308 -1.2012302 1.6882486
道 0.3123842 -1.9088212 -1.3351736 -1.2739563 0.265781 -0.3588843 -0.42840624 -1.8374178 -0.080299966 0.048166562
客 2.0280201 0.27692208 1.1512302 0.9817282 2.5376167 2.7922032 0.40075633 -2.5195184 2.5264292 1.0431678
近 -2.2347791 0.1899307 0.13913058 1.3201467 -3.5191069 1.0940448 -3.263747 2.2013738 0.6308174 2.096933
爱 0.87044466 -1.111708 1.3993686 -1.8045273 1.4254404 1.0587254 2.849628 0.23351167 -2.6100683 -0.5266175
失 -1.005898 0.5903586 4.7514057 -1.0976754 -1.2790489 2.350986 -1.187098 -1.3568548 -0.7723065 2.3576887
量 -1.2901129 -1.0231735 -0.701454 0.74491435 -4.1315527 3.7375836 -2.2094028 -1.2440802 0.862417 -2.2104063
F 3.2484365 -1.2891595 -2.9504457 4.6493435 -2.1076062 -2.8154056 -1.4037592 -2.313017 1.4422317 0.25604784
局 -1.7974522 0.5185989 0.8186315 -1.3138164 -1.4353727 0.4229476 0.17873713 -3.3963785 2.3557749 -1.2042996
任 -1.2495028 -2.2862425 0.43612227 -4.7356153 0.27981642 -1.7300595 -0.096408956 -1.7524626 0.21994321 -1.1279724
索 4.2514052 0.6868443 3.4654408 2.4528434 -2.0001402 -0.33607775 2.9192398 -2.9041238 0.61379665 -1.8696605
百 -1.1848125 0.61335963 1.5526378 0.93826574 -2.1175878 -0.5411752 -2.0217404 2.8121915 1.271348 0.5986212
求 -3.0313973 -0.44950902 3.5616753 -5.1437416 -2.018801 0.9482443 0.62386453 -1.8202573 -0.26469988 0.07740336
富 0.8294038 -1.2579784 0.4288147 -1.1903188 1.9511511 -3.626359 -0.36453748 -0.7413787 2.5741475 -2.9972012
版 0.40839645 -0.82208914 -3.0729213 1.3674608 0.21960476 0.6186911 0.10302819 -1.0146126 1.1869817 -0.17288254
际 -2.7190068 1.4877623 -1.084059 1.2272995 2.5222697 -0.87678754 -1.0237607 -1.067164 3.2253191 -0.42351452
五 -2.8396413 0.07373264 -0.9960782 0.45838538 -0.23806745 -0.14790682 -2.18237 1.952726 -0.19232756 2.0502455
物 -0.5753862 0.21093611 0.3247798 -0.9709635 0.7321903 2.1778715 0.9443546 0.334944 3.6044655 -2.788647
破 1.4483281 0.5984619 3.1524856 2.6411567 -2.4528122 1.7939744 -1.5502764 -0.6571278 0.16410245 0.44386563
十 -2.6164672 -0.14175572 -0.7072589 0.15743224 -0.7990994 0.07848257 -2.2614098 2.18655 -0.46847457 2.6093576
引 0.42643905 -0.95177186 0.23930655 0.31507847 0.38783824 3.1015987 -1.4374642 -3.4620588 0.80919784 -0.3758218
或 -1.4698131 -0.4196938 0.35755226 0.4907092 -2.9270666 1.6884497 -2.2415895 -1.9835286 0.091957115 -0.11497637
节 -1.9432353 -1.1181412 -2.7475338 0.1384925 -0.9260769 2.3992314 0.7515667 2.2676442 -3.130533 1.4174773
欧 -0.9974894 1.5138446 2.3836288 1.7832248 0.22252999 -4.430555 -2.8998072 -2.940599 2.6470342 0.8458149
博 0.4873156 -4.209269 -3.1058023 -3.3878222 1.4880099 -1.9222618 -0.0646296 -0.61564046 -0.7415411 -2.8661554
转 -0.93346834 -0.9919238 -0.5710208 0.09454106 -1.2129776 2.290787 -0.9474027 -1.43728 -0.16043106 -2.3868842
集 -1.4445056 -0.6626738 -3.1838849 -1.6208535 -0.07119479 0.8730424 1.2106895 -1.3558003 3.3820064 -1.1639622
色 0.2241496 -0.77610725 0.38103393 1.0916107 2.7760532 1.7460643 -0.46918988 -1.583695 -1.0659114 -3.3700256
系 -0.2740613 -1.2629778 -1.4966733 -1.7141669 -0.12884888 -0.5898078 -0.27368623 -5.939755 1.2253737 2.1728904
造 0.0029961648 -0.97560674 -0.69628173 -0.6724326 0.12848555 3.257265 -0.008115891 -0.1480591 1.2576537 -0.7151091
江 -1.7948545 -1.0796593 -0.8986782 0.68946815 2.5342205 -4.478333 -2.706426 1.1226779 -1.8589255 0.5727131
所 -1.9235044 -0.17114063 1.1495568 -1.3570228 -2.2032304 0.14476673 -2.9399176 -0.71259356 2.6671662 1.9632185
留 -3.3370173 0.27811745 2.7852108 -3.539481 -0.8080623 -1.096973 -1.0984613 0.93337536 0.8311726 2.1728623
香 -2.7533433 2.1342304 -1.3008754 4.294345 -0.1840363 -3.7735245 -1.9642051 0.57432634 3.3174734 -2.8327246
约 0.34748626 -1.2575009 -0.8244039 -0.72135854 -1.072118 -1.9156777 -1.8394982 -2.019502 2.971463 -0.14796664
李 -0.87257236 -0.21043113 -0.18986982 0.010068225 2.3706732 -3.5933933 2.9098365 1.6953098 -2.992781 -2.4640117
运 -1.0242989 -1.9626131 -1.2257322 -1.1006179 1.5724459 -0.19186838 -2.5175545 -3.662556 1.374626 -3.0345612
油 -1.1675376 0.28309932 0.11016845 3.1067555 -1.3871692 2.4918637 -2.5076754 -0.3519764 2.3729765 -5.7707176
快 -3.6012104 0.35114688 -3.1616876 1.8504308 -1.4449543 0.4335907 0.7752376 -3.4034145 -2.6293836 -1.8311982
兰 1.2584404 1.5050495 2.9474757 3.7311306 1.3342049 -3.5280027 -0.00031596332 -1.9916316 -0.75389796 -1.1481311
独 -1.409344 2.0041342 -1.426615 2.8706682 0.29638246 0.37654474 1.7574176 0.20695876 0.41080037 1.3185863
以 -0.6796375 -0.110167325 1.7212534 -0.072346956 -1.0038438 0.45064133 -1.070901 -1.3994621 -0.44312194 -0.07279904
韩 -1.3075889 0.43764988 -0.34970042 -0.80109084 3.295457 -1.6268091 0.49770817 -2.2608473 1.40555 1.1426729
得 -0.43216452 -0.120692536 2.252283 -0.98886144 -2.7728693 0.03771721 0.93585855 0.17948997 -1.5016695 0.07887885
园 -2.380651 3.482293 0.6430138 2.7548833 3.2584527 0.21373571 0.5127969 1.6433644 3.1868947 2.0823376
阳 -4.248631 1.2256125 1.2716751 0.18495439 3.6934495 0.43737137 -0.75538063 2.636179 -1.8942577 -0.23615694
冠 -2.0642135 2.077032 4.3562446 1.4797479 3.0332153 -1.6758093 -0.81304044 -3.9482932 -2.7079139 1.9586021
易 -2.0050669 -2.254583 -1.5005065 -3.0832 -0.668184 -0.1064764 -3.3653708 -2.8554523 3.4534209 -0.74685085
爆 1.8032376 -0.3353553 0.789253 2.929784 1.2408248 4.3827333 -1.3412246 -3.043698 -0.22008198 0.7308098
龙 0.26807135 -0.7282508 0.14575812 1.693206 3.3695643 -0.94637144 -0.54994804 0.687904 -2.5070977 -1.2876662
少 -0.2753926 -0.90221685 3.4963095 -0.8303219 -1.3213844 -1.8253398 -2.3850794 3.8105795 -2.100426 3.1892805
只 -0.5722547 0.3846859 1.885825 1.0090214 -2.6424003 -0.333505 -1.2591778 -0.33801836 -0.6823917 1.17165
流 -0.031870876 -2.4492116 -1.5331662 -1.4952682 0.19108191 2.351174 -0.9615545 -0.4439335 0.63831985 -2.650478
l 6.0583067 -5.373432 -3.9623628 1.7379756 -2.327284 -4.711092 0.20392768 -1.5771785 -2.792734 5.657924
职 -3.8403108 1.0106865 1.2319239 -3.7406373 -0.26298362 0.7954717 0.108015105 -1.3273147 3.2001703 2.9682057
路 -0.6628474 -0.6600865 0.34921762 -0.17755018 1.2353578 0.5581068 -1.3717084 -0.44438598 -0.50167376 0.5686729
表 -1.4712113 -0.00049727416 -2.13793 0.00908888 -0.11997193 2.560844 2.1310167 -2.5793483 -0.59861964 -0.1154512
疑 2.482527 -2.0174146 2.5885167 -3.9215405 -0.9174852 2.8887482 2.8462203 0.5041253 1.6877567 -1.5079746
送 0.13612105 0.19618157 1.1319346 0.21644892 -0.19014865 1.2944287 0.040055208 1.5083032 1.0758677 0.22493611
财 -4.7061324 -0.6995564 -1.8515909 -3.3409772 -1.9546715 -1.4046718 -1.0873019 -0.5532319 2.2966678 -1.64816
于 -1.1162447 -0.18816102 0.30896574 0.39063665 -3.0371606 -0.060245965 -1.3233192 -0.8486511 -0.36068022 1.0701271
买 -0.6686591 0.027861925 1.9442834 0.19274665 -1.923019 1.6444571 -2.1798768 -0.24449159 1.4964454 -0.18012486
宝 -0.21619557 -0.42333564 0.8152897 -0.47674224 3.5799534 -1.4304781 -0.031085966 -0.49023303 0.5203917 -2.4482481
号 0.547426 0.6864177 -0.33991826 2.403475 -0.045743413 1.3105509 -1.3471549 0.47483808 2.2584784 2.952325
改 -3.4828768 -0.12994145 -0.843504 -3.196651 -0.31899992 4.3601794 1.6292913 -1.4562503 0.7454638 0.4083767
就 -2.8785765 0.39146617 1.519198 -2.4309218 -0.8087237 1.2301995 0.19184244 -1.0570241 0.010428262 1.306522
问 -2.740227 1.2353755 0.29654613 -2.6328115 1.2986846 2.078439 3.957497 -2.6572187 0.1272817 1.4933101
其 1.2034966 -1.7048496 3.0334406 -3.2215202 -0.14605556 1.1431806 0.5084061 -1.5177889 -0.10460256 -0.108646296
团 1.0089382 -0.5482436 -1.1925329 -1.0063186 0.5967492 0.42761257 0.9519238 -1.467325 3.7242954 0.8478168
导 0.30737776 -3.0595737 -0.3315379 -2.900841 -0.40728945 0.16323039 -1.7686903 -1.9503932 0.18856741 -1.0306536
语 -4.1377053 0.830351 -2.6277647 -1.4313045 1.5266143 -1.9922094 2.6969042 -0.5019579 -1.3349973 3.7051592
震 -5.5130634 -0.31713876 0.27495274 0.8437808 0.92326665 3.553691 -3.9458477 -1.8924843 -2.808703 -3.8553352
玩 -0.501119 -1.2110926 -1.7696326 -2.2617495 1.6533179 1.3716229 1.5408072 -0.15662141 0.7277123 1.4148145
感 -0.071107216 -1.365866 0.9714624 -2.8549716 1.5704005 3.7237806 3.962857 -0.78066045 -2.9055786 -2.320094
片 2.769435 -1.1987761 -1.9141903 1.3304123 -0.042919695 1.9861883 2.4466972 -1.1388639 0.78138393 -1.6961657
底 -1.7230973 -0.8213028 -1.7875367 1.1451786 -2.3718708 1.5719503 -3.2685847 -0.4269063 -0.23831965 3.5214942
他 0.045212686 -1.0658181 3.3620877 -2.6801789 -0.95605487 0.72239107 1.516467 -1.1906377 -3.2687476 1.0783026
拍 1.9476148 -3.3623393 -2.3092911 -0.95485765 0.958548 1.4309999 -0.40577632 1.4534779 -0.6023137 -0.888004
r 4.616577 -4.0223746 -3.4286997 1.3811407 -4.0581083 -3.5492308 0.5545468 -2.5261822 -1.2384788 4.388232
夫 1.848894 1.0880244 5.9602547 -1.2573992 1.5456518 -1.5492651 2.8671932 0.62965035 -0.9030726 2.586692
优 -2.5088458 0.9773322 -1.1506618 2.5100858 -4.0510836 1.2773881 1.15045 1.7257698 -1.7986598 -1.9001786
标 -4.241006 1.7295725 -2.2508264 2.0192442 -5.3451843 -0.30142078 1.3063025 0.73154044 -0.57650024 -0.6799946
何 -2.8528714 0.5308634 4.2879977 -2.9040272 -1.1164836 0.81118584 1.8774145 -0.7686446 -3.5951388 0.2787072
亲 2.0603971 -3.442139 1.6307199 -4.985313 1.1113597 0.44581336 1.5348012 1.734451 -1.2049011 1.4151828
想 0.30128634 -1.2109734 -1.482696 -0.5641158 0.36433142 -0.8938014 1.6957959 -2.0874119 -2.7474768 2.8528256
奖 -2.6629333 1.6785494 0.6498488 -0.024250982 -1.2811326 -0.25967208 1.9651715 1.1777364 0.28487435 -1.0301081
落 -1.2526052 -1.1030672 0.87006736 -0.32771623 0.6971777 2.499211 -2.264999 0.32213935 -1.6442385 0.12449246
规 -1.8688014 0.74868244 -1.4583396 -1.3572022 -3.1788895 1.9081562 2.5047102 -5.1020083 3.0694768 0.6836683
决 -2.7623026 2.88993 1.9621899 0.884931 -2.2739024 0.00050946156 2.4097078 -5.4332533 -0.52685386 1.6984427
佳 0.18378776 -0.07868497 -0.50714517 2.710893 -2.7294147 1.6900835 2.355393 -0.8795777 -4.8584414 -0.35336995
划 -5.344469 2.9773178 -3.124332 0.06986431 -3.3222358 3.7167978 2.3339896 -0.3234464 4.7362337 2.3925211
沪 -3.0159576 -2.3225787 -2.8758278 2.2845793 -4.314451 -1.4657985 -5.736521 -2.0892754 -0.9987524 -3.7565868
卖 1.1986159 -1.9177867 -0.09082151 -0.35220408 -0.7853479 2.7315006 -1.7813629 1.8896791 1.0969516 0.40336534
官 -0.3400117 -1.1823063 -0.2627454 -3.1343858 0.75971985 -0.586966 -0.7021778 -3.851047 4.1167808 1.5138274
值 -2.3875957 0.5134845 0.5509016 2.1670535 -6.4331255 1.2074184 -1.7074865 1.2886487 -0.30928016 -2.0062692
险 -0.66082406 -1.4804466 2.7097425 -2.082523 -0.0315216 1.9933182 -1.4087627 -1.5818527 0.86197686 -5.3725853
及 -1.3415716 0.93679065 -0.0052638613 0.045111064 -1.9477779 0.6307486 1.2080629 -1.3334233 1.1071866 0.58630174
足 -2.400142 1.0296574 2.3384476 -1.5356839 1.030563 -0.000668926 0.036395464 -2.3099806 -0.31144118 2.0044334
备 -3.1845942 2.2928643 -0.8272307 0.8698063 -1.8905107 2.346057 2.1596622 -1.2092834 0.75504225 1.4277623
环 -2.7897584 0.9935332 1.6105102 1.549758 1.5070323 -1.0303236 -3.0981011 0.4604309 -0.30214316 0.6782995
助 -1.1610286 0.21701612 2.3093312 -1.8411918 0.59905326 0.73671544 0.3099394 -2.4416134 0.40645266 -0.56198806
口 -0.10144547 -0.6216535 0.108524874 -0.47409075 0.7085033 1.9732274 -0.20739688 -0.29084906 0.10807145 0.8479909
清 -2.0464268 -1.6215891 -2.8066201 -0.7578698 -0.3369896 -1.1118916 -0.31852013 1.4057599 -1.2696007 -1.9599265
N 3.0411694 -1.7130667 -4.233919 4.222391 -2.0537508 -2.6477718 -0.5862925 -1.6870952 1.4692386 -0.25242665
V 3.8352983 -1.0900286 -4.1906276 5.2276654 -1.3611494 -2.2557197 0.4306943 -1.1713489 1.6849364 -0.46609253
支 -0.6839925 -1.5982363 2.8454933 -2.657542 -2.23526 -1.8979901 -4.1496162 -1.7908509 2.1643758 0.47554043
弹 2.0704496 -3.716448 0.29267076 -0.13477032 -2.688702 3.181506 -3.1593072 -4.8369584 -1.3098719 -0.7257556
准 -4.4084663 2.1419618 -0.74850005 0.3846445 -3.5651479 1.2513942 0.8355683 -0.52526444 1.1127416 1.4124745
千 0.16785422 0.23713641 2.5674965 1.068113 -2.3983922 -1.8722128 -2.2699263 4.020097 1.5654968 0.60846996
排 -1.795247 0.1387781 -0.1988591 -1.38478 1.0436532 0.27429378 -1.0688365 -0.6012907 2.372363 2.579977
权 -1.1375117 -1.2649182 0.0680577 -2.2852924 -2.7310486 0.72361046 -0.41962236 -1.9386468 2.32806 -3.5304062
记 0.48392612 -1.2377365 -2.3572648 -1.5132539 -0.69884443 0.63677603 2.1602535 -0.85140806 0.4518073 2.795699
套 1.5774798 1.9377753 0.7028922 5.4013276 -2.2784727 2.3913124 -0.6854696 -0.65065485 2.542429 0.73644924
件 0.22365987 2.1186018 2.0503662 0.71228206 -2.2539055 3.8895953 3.0712943 -3.9875042 1.9082932 2.4130714
言 0.47898278 0.33311066 -0.01637707 -0.47342256 0.49158594 0.7684201 4.1252074 -3.490845 -1.2999485 0.61018515
真 -1.1482431 -1.3607346 -1.9814501 -2.2749238 0.107860796 2.113897 3.0720346 -0.66839224 -1.9055818 -0.46562085
管 -2.529686 -0.9519536 -0.5667229 -3.237887 -1.3507314 -0.09851747 -0.5702771 -2.478787 2.9497533 -2.146431
服 -0.061345093 -0.9138298 -1.9371964 -1.6470765 0.8881737 1.4738027 0.6285767 -0.2944268 3.853582 -0.23500156
志 -3.3521972 -0.23995246 0.23857947 -4.0176086 -0.5993355 -4.4275503 3.4491286 -0.4283501 -2.1227026 -0.3025524
做 -0.50989753 -1.5558813 0.8400321 -2.3184156 0.2786236 1.2645236 0.29977107 0.14581558 -1.3988621 -0.53022176
待 -3.0822575 1.3206049 -0.7877945 1.5407882 -2.670541 3.0224571 -0.708642 -0.044805486 0.5760301 0.73361385
河 -1.8875495 0.9818492 -0.3431525 2.8928173 3.984042 -1.6035876 -3.2262933 1.2532544 2.1676967 0.12983568
享 -0.9957945 1.7082403 1.0299588 2.1285439 -4.814251 1.0039338 0.6168102 2.379736 1.0979548 2.8577492
术 -0.8315727 -3.5997524 -4.1974864 -4.180103 0.16251624 -0.8397356 1.6122972 2.0403903 -0.36500221 -1.0507119
原 -0.73714983 -0.09027578 0.6555068 -0.3049741 -0.46440122 1.2391353 0.11010128 0.64695656 1.1042181 -2.4302745
黄 -1.2819474 0.4635477 -0.36688137 1.6259657 0.067103386 -0.60966 0.5777092 1.1459347 -0.2988295 -3.9877958
陈 -2.022803 0.44664735 1.7888868 -0.5295912 2.0750732 -2.351531 2.9583864 2.2617054 -4.305709 -2.4076068
朝 -0.015798686 -5.364286 -1.2668536 -5.2132425 2.503414 -4.393433 -2.0292957 -3.0161517 -2.1911907 -1.3329548
站 0.124219745 -2.5793214 -1.8959694 -1.1177496 1.065182 0.04869469 -3.1711159 -1.9291178 1.9922742 -0.28347418
谈 0.09573469 -1.0881807 -0.45693123 -2.6907065 -0.41043422 -0.40411705 2.1980488 -1.9548259 0.43963084 0.7681957
接 0.041436706 -0.91336215 1.8601205 -0.57210255 -2.1666112 0.87406945 -1.4584882 -1.7641705 -0.7726189 0.5879922
整 -5.2977586 0.32787696 -2.1015828 -1.2508967 -3.725276 2.299177 0.78369105 -3.4545128 -0.49921903 -1.8543172
仅 1.1303661 0.80180115 -0.18323144 4.283282 -3.7351189 0.7137511 -1.5471702 -0.24208115 1.4437281 2.7935154
湖 -1.6635686 0.18273902 0.16735382 0.83504105 3.864146 -2.7646203 -2.055446 2.6279588 -0.21378356 1.924194
都 -2.3853893 0.5452938 0.71517885 0.1259164 0.23799267 -0.28366315 -0.7877601 -1.3242862 -1.2314738 0.8423448
抢 2.3143976 -2.7223077 0.6747099 -0.47052643 0.5447238 1.2791903 -2.701069 0.72294724 0.57212716 0.051432468
奇 2.290161 -0.6361275 -0.21235582 1.0220227 3.9120495 -0.59391975 3.6221855 -1.5826066 -2.9398263 0.2334569
福 -1.8402034 0.231468 -0.75560725 -1.2000754 0.81794465 -3.6847112 2.0944037 1.9735425 1.455518 -3.1080456
胜 -0.6349138 0.37240976 2.6429367 0.7378111 -0.8391676 -1.4144218 -1.1477106 -1.4808049 -1.62601 0.32747313
离 -0.14998987 -1.2798963 0.61335456 -2.3714786 -0.016936364 0.9743048 0.5559264 -0.066392876 -1.1249065 2.3907905
办 -2.2339668 1.197165 0.35982347 -1.7877342 -0.22910707 0.06612665 0.4418112 -2.0127456 3.5817065 2.8299234
示 -1.9531465 1.0595907 -1.9306417 0.79858947 -0.54853004 1.1219786 2.9456763 -4.601892 -1.0439155 0.09567476
武 1.1355013 1.3130182 -0.23901421 1.6585594 5.1955094 0.59497815 3.5259688 -0.41757452 1.2780471 -0.35290158
等 -1.8342537 0.69933647 0.7894379 -0.05962425 -0.8429716 -0.042014997 -0.2026765 -0.1615445 -0.15411006 1.0517799
气 0.03904139 -0.8472051 1.5081105 -0.1974231 1.2399064 3.0855088 0.10127125 0.3927716 -1.7480358 -2.078389
立 -2.4524481 1.3272833 -0.6860689 -0.09884837 0.13283159 -0.52758485 1.2392017 -1.4684085 1.4256821 -0.11248514
显 -1.5386052 -0.41726154 -4.439681 1.4959915 -1.9233819 -0.44235942 2.5466223 -2.1153157 -1.4690396 -2.414265
批 -2.5140676 1.6900905 0.14986916 0.38763756 -3.4527905 -0.5965547 0.27868485 -2.624711 0.90560144 4.0934305
太 -0.28577396 -1.7796481 1.5659645 -1.4549847 1.1354318 -0.83493274 -1.8348335 1.672026 -1.3040404 -1.3961821
牌 -0.5146946 -0.95570505 -0.9184023 -0.3467326 0.46067318 2.613556 -0.55092573 0.8023002 1.4774882 -2.018919
注 -2.3131285 -0.26145238 0.6155331 -1.7296019 -3.399693 1.4150647 -1.7682916 -3.6654372 0.82928455 4.0602045
举 -3.3143713 -0.81600624 -2.4399812 -2.3916268 -0.09019621 0.36311737 -1.9593108 -2.5447412 2.8564749 2.0507653
讯 -3.0802522 -0.84756917 -4.104123 0.61202866 -2.1335826 -2.997929 -0.6510018 -2.6713555 -0.28178933 -1.7358732
启 -2.9511557 -2.1719754 -5.8195124 -0.84963727 1.0065686 1.6360168 -1.5593369 -2.5246763 1.0725256 -0.5524453
d 4.0294504 -2.6608016 -1.7685802 2.1849902 -4.0254784 -2.4055407 -0.052088257 -1.5914671 -0.96558607 2.725484
技 -2.542906 3.2638376 0.9825752 0.115724586 0.49886942 -0.08954817 4.3031726 -2.033033 0.39375728 3.2638578
秘 -0.68724567 -2.1881533 -3.270355 -3.0397325 3.5381267 -0.70160335 3.7604244 -1.3179734 -1.1750703 -2.4155111
媒 -2.7290986 -0.5713295 -2.6550994 -3.3866463 2.4971223 -1.0177877 3.4010706 -4.8337083 1.2696403 -1.8914169
如 -2.8537776 -0.38764703 2.5411391 -3.0559819 -0.71275115 0.50341874 1.25422 0.19481643 -3.6239784 -0.3668169
微 0.99616635 0.6112809 -1.7724851 2.222908 -0.16434191 1.4884336 3.5482266 -5.4001074 -0.4940708 0.07760753
黑 2.8803813 -1.6146944 0.7012888 1.0156748 3.34951 0.63363177 -0.26738504 -0.61856115 -0.3644373 -1.698807
墅 -5.1152163 6.723057 1.6096379 8.170253 -0.9179742 2.6316373 0.5118095 0.5399865 0.44728512 3.449839
府 -3.3963401 -0.90557694 -2.482297 -2.13589 0.21569234 -2.387087 -1.593969 -5.7814207 2.4304402 -0.9878547
更 -1.3324274 -0.5012337 0.3524369 -0.80340016 -1.2773317 1.61162 0.44945702 -0.9136003 -1.2567426 -0.91572565
观 -3.4529312 0.044737462 -0.6127864 -1.06206 2.1580496 1.7608446 -0.071580514 -1.009531 -1.0769156 -1.0564908
青 -2.2087815 -0.1452886 0.86588067 -0.82123524 3.081611 -1.606812 -1.5481597 3.3678699 -1.126171 2.270949
质 0.13260502 -1.1807802 0.1142189 -2.0429409 -1.5550712 4.1931605 1.9922276 1.3054754 1.6683359 -3.121545
仍 -2.0463078 -0.23188826 2.380894 -0.8942327 -2.8070366 2.3841906 -1.0406979 -1.3994642 -1.5312697 -0.62571114
宣 1.9855434 -2.1116593 -3.3793852 -1.9025229 1.5117184 -2.5279527 2.318002 -4.340366 4.03223 -0.85420525
停 -0.9126975 -0.32928118 2.2311525 0.3488972 -2.2882848 3.6342635 -3.3766334 -0.8031661 0.9966821 0.5188142
防 -1.6290306 0.6030001 2.6840951 -1.1526772 -0.3277146 1.6076702 -0.7514603 -1.631894 0.91865486 -0.14505887
债 -1.638373 -0.8446255 0.7876773 -1.2539533 -4.2148924 -0.8742613 -3.1052232 -2.3226075 4.1148176 -2.9343967
模 -0.7748523 -0.13980861 -1.7466009 -1.1798618 -0.603904 2.5428865 2.0876355 -2.1559138 2.6694267 -1.0430205
需 -3.6945 0.15668426 2.903846 -3.020969 -3.103599 1.9431893 -0.48728645 -1.7734566 -0.30339003 -0.69322234
住 -1.7500199 1.7508749 2.6512182 -0.0828807 0.25328872 2.7114198 -0.8920048 2.1104374 3.4503083 1.4191544
伊 1.8939306 1.1010635 1.9321258 1.6946921 -0.9034666 -3.550073 4.094124 -5.4409943 -1.1651958 -0.5746233
幅 -2.6220086 -1.8337715 -1.5894073 2.7756088 -4.052926 0.91449386 -5.5187736 1.3241901 -1.434992 -2.7191935
减 -1.5487587 -0.48658058 2.839726 -0.42484957 -4.7267656 -0.14790155 -3.3081167 0.19149879 -0.13808745 -0.0942927
Q 3.151887 -2.2051492 -3.7903492 4.4676065 1.6857641 -0.9015346 -2.0392165 -0.24169372 0.8828466 -1.0186528
非 -1.298386 0.42425632 1.7413974 -1.9251053 1.4991423 -0.4311056 0.569777 -2.5473742 1.0814549 0.57361877
先 -0.5957579 -0.97169894 0.9757801 -0.58244586 -1.356647 0.8038549 -1.0844545 -0.21224529 -1.21845 -0.6086928
还 -1.0158358 -0.5240768 3.0563328 -1.8955328 -2.3465865 1.5211027 0.1669494 -0.68752486 -2.0239923 0.19127302
X 4.1558943 -0.909664 -2.8543603 5.9194655 -3.1381128 -2.0668943 -0.33621204 0.28734583 1.1727657 0.6147918
庆 -2.47494 -0.3653273 -1.0875014 -1.3379264 0.5725899 -1.1452488 0.3876034 1.9575474 -0.5996667 0.11504837
券 -4.729369 0.36509624 -2.1841128 -0.43059924 -5.1686177 -1.010138 -2.519999 -3.4182317 5.8204355 -3.3999653
普 -3.1013627 1.7731371 -1.4272988 3.6213973 -3.3405328 -3.2474484 -1.1252624 -1.4310869 0.10469081 -1.0844444
钱 -0.18851337 -0.93321806 3.6558151 -2.1366248 -2.1053646 1.4767561 -0.9633704 3.1101604 0.10584105 -0.642513
融 -2.531169 0.63617843 -1.5526999 1.3445839 -2.0837905 0.26227054 -1.1461616 -1.984285 4.298891 -4.882809
了 -0.19374932 -0.65806997 2.3398645 -1.1996467 -1.5278869 1.4700134 0.3592794 0.36854166 -2.332393 1.4778994
绩 -7.3323603 2.8395367 0.020648029 -0.24089794 -4.201062 2.058722 -1.2638747 -2.6782947 1.927395 1.8444973
维 -0.37267527 -0.124416195 3.5113273 -0.297793 -1.4585537 -2.688041 -1.2778744 -2.752078 0.39356717 -3.6348763
冲 0.33515236 -0.35065076 2.108832 1.83318 -0.8595428 1.8066173 -2.3837354 -3.4098206 -1.6453705 0.42184985
企 -4.4296985 1.9911877 1.1595571 -0.16220699 -0.03412958 2.5781407 -2.0931246 -1.6267061 4.369672 -1.0807298
率 -2.091903 -0.15443902 1.0186769 -0.08778419 -4.5926967 -0.6080926 -1.6576228 -0.2989343 0.124187596 -1.5254583
惠 -1.5070736 1.0076249 -1.1576263 3.3577373 -5.0953693 -1.2089486 1.9786581 3.454179 -1.397181 -3.3171043
秀 -0.9601057 0.13077402 -0.9371161 1.3831605 1.1657058 0.31263664 1.6055989 1.4439328 -2.548337 -0.8724001
否 -0.34121105 -2.1543767 1.783425 -3.9724934 -4.5005054 -1.0802077 2.1350582 -2.7976773 -2.3364887 -2.3052983
密 0.46819732 0.3150117 -0.58646894 -0.6039756 0.5879072 0.4318297 4.145763 -1.9345918 0.9248515 -2.177216
遇 1.3408407 -0.9719731 3.6221442 -0.55190027 0.39177486 2.8876445 -1.5582532 -1.7047113 0.17766325 -0.6552393
救 -0.40065303 -0.6194542 3.6533344 -2.42574 0.039634723 1.6067353 -1.2859036 -1.153312 0.8393711 0.12951058
六 -4.00688 0.22872466 -1.3729049 0.07434944 -0.7554933 0.08973838 -2.1035511 1.9649098 -0.59869874 2.8513515
育 -6.376708 0.49811965 -1.2220267 -6.212042 3.2649093 1.5346946 3.4515028 -1.6368039 1.285453 1.4111054
铁 -1.6422111 0.84904337 1.5817072 1.1882058 2.7629378 1.091768 -1.8862708 -0.2906872 1.3794307 -1.8927504
礼 0.29808572 -1.9111837 -0.6006622 -2.204715 0.10298548 1.1269225 1.9537668 3.7885332 -0.63745505 -1.7260876
洲 -3.3810074 1.9263101 1.7749034 1.3173591 2.0525913 -3.3590863 -2.4653478 -3.8405364 1.4418315 -0.019446751
申 -1.4667805 1.303377 3.0539932 -1.1153084 -3.1569126 -1.9060183 -0.8926111 -2.2659357 3.1477873 1.6976163
直 1.5638666 -1.3110101 -0.19293973 1.7469815 -0.82514346 1.3557149 -1.8779467 -3.3333092 -0.84102213 0.775794
策 -4.297901 -2.4299572 -2.851769 -4.084594 -2.6539223 -0.35427266 -1.1751138 -8.119861 0.21943213 -2.0834987
参 -3.47864 0.8797103 0.068926945 -1.5436006 -0.6397965 -1.5072557 0.41301906 -3.8066256 0.07360351 1.6465864
深 -3.8677633 0.22560029 0.8643883 0.39757836 -0.34666836 1.2088938 -4.43714 0.38195723 0.35489646 -0.2761038
s 3.4567199 -2.3233645 -1.0477083 1.4536858 -1.3254734 -3.6235702 -0.005620796 -1.9277356 -1.8866323 4.259617
春 -2.4267938 -1.4186738 -2.1449468 -0.38027644 2.3623216 -0.4045139 -1.0169402 2.103082 -3.168651 1.2720466
果 0.46161428 0.7791074 -0.34475842 2.4713848 -3.8754122 2.1997929 3.0227993 -3.429347 -2.228332 1.4938649
票 -0.7184892 -0.080590285 -0.6233161 1.7263303 -2.6697094 2.7933729 -2.6400235 -0.47618696 3.802872 -2.0853875
波 -0.5031875 0.2793325 0.38769555 2.1292841 0.91227937 -1.2382976 0.47942913 -2.3215032 -2.6972167 -2.5441794
完 -2.6777997 0.60006374 0.0151698105 -0.7768952 -1.4699564 0.017523805 -0.13430108 -1.3988668 -0.04649268 2.0770776
源 -2.1599934 1.7625003 -0.112906076 2.5194943 -2.3465014 2.2181377 0.18824995 -1.1953466 1.3747691 -2.2004592
见 -1.2287031 -1.4647315 0.27360788 -2.4277952 -0.50655234 0.0490114 0.17930895 -3.1724308 -1.986254 0.100177966
盛 -2.9782293 -0.6069909 -3.2111502 -0.42447996 0.8309762 -1.2587676 0.19419403 0.20723768 -0.44652423 -1.403094
暴 1.3978323 -1.6289978 1.5400708 2.0481467 0.32493022 1.8091518 -2.2961843 -1.4468716 -2.1106625 -3.7203238
消 -0.02079211 -2.9585907 -0.23731951 -3.985734 -4.7505426 -0.3928197 -1.0345303 0.2514532 2.4936643 -1.2374023
假 -1.2229507 -0.08102526 0.4158673 -1.1154184 -0.35948336 3.0991325 -0.43717957 -0.3053667 1.6497287 0.7128707
突 1.7964797 -0.95021856 2.4493213 2.0338345 -1.889475 2.8337426 -2.3153288 -3.100969 -1.3038855 0.1774905
判 1.7735517 -0.51770574 2.893911 -2.672731 -4.0730844 0.8511943 1.8602235 -4.0476003 1.7920594 5.104761
息 -0.69671816 0.094927005 0.66697425 -0.6579486 -4.1580725 1.1547414 0.05405346 -3.036043 2.609141 -0.8847136
景 -3.2746432 0.5566931 -0.9272871 0.66939354 1.8600276 0.7711236 -0.32534146 1.388759 -1.0143235 -1.1977842
飞 1.9998344 -0.8472557 0.8076685 1.8911211 1.6444311 1.8938255 -1.7243886 -1.4153503 0.69028187 -0.85614747
你 -0.4657294 -1.9365138 0.867824 -3.6327279 0.34856632 0.8469528 1.6883798 -0.67002773 -2.8054488 0.8476216
程 -2.800245 -0.46706143 -1.0274999 -2.9185183 1.0363934 1.2839104 0.17876568 -0.34126014 1.0443597 1.8413571
歌 0.1027553 -1.5643656 -3.005182 0.5363659 1.8563461 1.1555476 1.2602843 -0.997934 -2.75746 1.0942241
核 -0.96214 0.30294552 -0.9808269 -0.016490264 0.44277388 1.1782557 1.677688 -1.7175127 0.47873452 -0.6167398
卫 -1.4103673 -0.43793583 -0.38863114 -0.81201404 3.305163 0.29318368 -0.49664608 -0.7811094 -0.48482934 1.078414
帅 1.0896889 -2.507078 1.5648435 -3.181073 1.2164387 -2.0439854 0.70761067 -2.5613377 -1.6236966 -1.8818066
俄 0.64592326 0.119976975 2.2876236 -0.45984533 0.48448953 -3.1567225 0.45734552 -4.6805744 1.4109583 -0.48401535
H 3.2474902 -1.68032 -3.379129 4.654694 -3.4402392 -2.196743 -1.9775624 -0.724167 2.5931644 -1.293722
尚 -1.1456456 -1.737355 -2.7648978 -0.3638106 -1.1928751 1.2433412 0.6994118 1.6240298 -2.1240914 -0.73471135
短 -3.5283294 0.06864643 -2.5788188 1.3089522 -3.0766618 3.197679 -1.2267066 -0.56467634 0.695077 -2.3743305
省 -3.2919004 0.8807987 0.640192 -0.29373172 -1.2899925 -2.4642074 -2.305731 1.1191845 1.681348 2.4991972
设 -4.004639 1.6623605 -2.8472047 -0.47254232 -1.1099547 1.9189024 1.5891289 -0.1315672 4.0114985 0.14082
t 4.5972123 -4.290405 -3.234985 0.60903215 -4.1502156 -3.4555178 0.7239972 -1.892445 -0.9777154 3.9156215
登 0.064918905 -1.0007104 -1.7533853 1.3699517 1.5852175 -0.15578386 -1.3905735 -3.0853384 -0.96101826 1.3324409
功 -1.9787176 1.0674088 1.3062577 -0.19094384 -1.3556633 0.84554166 1.4144818 -1.8566557 -1.7363567 1.4878311
访 -0.7440985 -2.0861175 -2.167177 -3.3900359 -0.57844555 -2.1168704 1.5158311 -0.7277313 0.88830495 -1.5018778
班 0.22774816 -1.6722974 2.8294134 -1.1396391 0.8079927 -2.5080483 -4.1228914 -1.8414723 -0.0667837 1.201098
白 0.4185641 -0.41805458 0.74815315 1.4974446 2.6312408 1.4818869 -0.24671198 0.9481404 -0.89126277 -3.1318974
话 0.59617215 -2.1482363 -1.7811612 -2.6785703 1.6830316 1.0339768 2.2529404 -1.6108674 -0.1331019 -0.8427714
即 -0.88580495 -0.13184878 -1.8185427 1.5150752 -0.7355965 1.6517891 -1.7036079 -2.7620933 1.3258266 2.1267657
攻 -0.13120706 -1.8940984 -0.027402034 -0.665374 0.066796236 0.35397282 -1.8815819 -5.1694627 -1.4036012 -0.4190248
湾 -1.709574 2.0903912 -0.57166386 3.4153297 3.6628249 -0.6158569 -0.9466106 0.6245237 1.9208167 1.5327597
云 -1.2306346 -0.43529573 -0.59391403 -0.47649485 2.6476042 -1.1326697 0.88923925 0.7736717 -0.4913868 -2.6057367
石 -1.2633554 1.301072 0.9828624 2.970012 2.2063437 1.6000545 -0.59719455 0.18105823 1.0032469 -4.6497755
没 -1.001465 -1.022106 2.2893565 -2.5532358 -1.3548529 1.1544572 0.631898 -0.79597163 -2.4228668 0.21897142
轮 -0.8810279 0.42744255 0.24098513 2.8109326 0.40891936 0.1710918 -2.336528 -2.0689235 -1.5380625 1.9151647
余 -0.26089483 1.3593854 2.6842048 1.4326141 -1.6979445 -0.85902274 -2.1177824 3.3980176 3.0224712 3.038649
豪 -0.4176698 0.8088172 2.241904 0.39563692 3.6227794 -0.2550907 0.34108862 3.0927646 0.765855 -1.476334
频 0.5734448 -2.2614946 -5.070379 0.106763825 0.8749016 4.476526 1.4642924 -1.0968107 1.0528512 -0.52710485
孩 0.8946547 -2.2510204 3.5053747 -4.948552 3.3888514 1.5178033 0.71128345 3.4289834 -0.49049783 3.6772547
济 -8.694047 2.4714096 1.1114618 -3.2683368 -1.0545087 2.5435336 1.6969556 0.5055599 -0.14351276 -1.870928
去 -2.1898046 0.035002474 1.4014021 -1.0313343 -0.32303357 -0.81204885 -0.88851047 1.1308159 -1.639288 1.8687298
让 -0.36318952 -0.18661097 1.8601862 -1.377779 0.31948406 0.47053504 1.247362 -1.0568419 -1.6232014 0.835837
控 -0.4984906 -1.7043917 -0.8285627 -1.1733218 -2.478016 1.20327 -0.8744668 -2.378796 0.7532625 -2.185799
究 -2.706936 -3.1669993 -2.9117866 -5.9520373 -2.3230584 -1.6883157 -1.4488128 -2.4929786 2.23406 6.933264
亮 1.321555 -3.7633162 -3.2871835 -0.44236568 0.94935524 1.0562097 -0.8691682 2.465437 -1.6833143 -1.1466897
绝 1.4189771 -2.1721041 1.9243935 -3.3782465 0.69487023 0.47063237 1.1738024 -1.619644 -1.1332194 -0.20312944
母 2.5506327 -3.1634083 3.2712426 -5.1221733 1.3414669 0.45417285 1.8486664 2.4907143 -1.2700416 1.3778491
带 1.0002989 -1.4648643 0.7659933 -0.25185865 0.1592682 1.7170298 -0.77543914 -0.23864396 -1.056449 -0.0046742274
签 -1.0659966 -0.2599343 -0.6309848 -0.36211136 -2.1772542 -1.2303466 -1.1676697 -2.7964518 1.6909144 1.2175071
份 -1.0215863 -0.59625274 -0.4181908 1.3756642 -3.9780214 0.9882483 -4.313997 0.27295965 2.7700722 0.6917561
欲 0.48928088 -1.0461311 1.3410897 -1.183793 0.2933401 1.1589078 -0.71012825 -0.609123 0.47828898 -0.00037840867
纪 -3.872681 2.329509 -1.2468733 -0.24871701 -1.0454669 0.3385488 3.8957605 1.5855196 0.018148357 1.2318848
？ 0.23216192 -0.2549564 1.1634848 -0.5205023 0.36279276 0.5636509 1.2759387 -0.046963077 -1.304373 0.7943724
纳 1.5936613 0.69402343 3.3355036 1.8796543 -0.7298104 -2.4313598 0.10099439 -2.4932683 -0.3006379 -0.7340664
压 -0.70890886 -0.9120173 1.5034415 -0.426976 -1.5812262 2.7725616 -0.76818675 -3.3881803 -0.9339863 -2.6084635
初 -2.9095812 -0.38381183 -2.676717 0.12664576 -1.0865481 0.8200937 -1.2153981 0.05972612 -0.8577967 3.6073349
论 -2.8794656 -0.15602314 -3.190802 -1.4462707 -1.6595545 -0.696445 2.3655753 -3.5754821 -0.17895614 0.49075118
泰 -0.32674894 0.6628994 1.7660078 0.12248346 1.4446324 -4.25791 0.19225068 -2.129649 1.6707311 -1.6533419
限 -1.2637492 -0.8376654 -0.7592694 0.026448855 -3.324811 2.648128 -1.4935495 -0.9762141 0.76373106 -0.6796794
速 -2.6134977 -0.6256399 -1.46146 1.2451574 -2.3439333 -0.45455015 -2.5074904 -3.1342962 -2.0854871 0.03958854
照 2.5132666 -2.679692 -1.3409309 -1.6991699 1.400508 3.2120986 2.716626 0.51563394 -0.6914979 -0.6484058
幕 -1.460531 -0.73500615 -3.385086 1.0011604 2.039912 2.623141 -0.29379344 -2.1946735 -0.54882926 0.27192643
农 -3.7490768 0.5727272 1.3157365 -2.3996825 1.7895089 2.0771327 -1.9696891 0.81050783 4.0813494 -0.20827818
析 -2.8713236 1.9815053 0.5272085 -2.0931869 -3.8417656 -2.0625992 5.350149 1.6356422 1.523202 0.5830984
巨 1.2068155 -0.8943159 0.7105698 1.863046 -0.13428968 1.3384318 -1.3530712 1.0519861 -0.5507173 -1.998177
监 -2.7305226 0.052288268 -0.09433543 -3.2996192 -2.0309813 1.1932093 0.5411134 -4.497723 4.494708 -0.8734176
兴 -4.9622374 0.3168207 -1.5087962 -0.86364084 1.0856944 0.15456626 -0.751504 -0.6645242 0.11113054 -2.6783962
剧 -0.81234586 -1.3499247 -2.0842078 -0.84185004 1.5311359 1.5783645 1.3432236 -0.64323187 -1.6996905 -0.5415113
愿 -2.6375258 -0.522793 1.5701301 -4.4956274 -3.0541604 -3.3235707 2.8613424 -1.4354669 -2.5170703 2.2312632
读 -3.4060655 1.8838806 -0.29172087 -1.8078244 -2.0181174 -1.1880246 3.6091018 -1.0541288 0.5673875 3.3674092
梦 0.33084327 -1.6866817 -1.7310847 -0.07283401 3.8505187 0.317416 0.79583 0.14558922 -3.3863504 2.9798994
知 -2.6842623 0.184959 -0.2442252 -2.7969725 -2.1277046 -0.005931898 2.3332622 -2.689666 -0.18368486 1.4834105
处 -0.34779269 -0.5855323 0.9642434 -1.8958695 -3.0239592 0.46064788 0.17365746 -0.7906636 1.1472623 0.86172634
书 -0.28095615 -1.0790846 -1.786352 -2.8183117 0.49444044 0.06868508 2.5183747 -0.43669155 1.6603616 0.36353678
揭 -0.24413761 -0.4489637 -4.091459 -0.487824 1.8237569 0.0017965325 4.5587435 -1.7572556 0.1768671 -0.05426198
苏 -2.6617823 0.46766564 0.022096759 0.13437141 0.81218636 -4.0437016 0.13840872 0.65303904 -2.447717 1.1845204
刘 -1.2802356 -0.7218882 -0.10514489 -1.4584459 2.55098 -4.1285114 3.5412536 0.4146082 -3.7942958 -2.4370556
病 1.6650342 -0.42088896 3.9129674 -2.3298433 1.2490199 3.2464035 2.732179 1.4372623 0.36115465 -0.3519164
存 -0.7120268 0.40669745 1.2489865 0.38186783 -2.633183 2.1962757 -0.27285478 -0.13491356 1.4380165 -1.3446338
拟 -1.503212 0.36632565 -1.1784858 -0.3051118 -1.6534007 0.16574961 -0.51421803 -2.684231 3.212352 1.0766926
席 -0.8516363 -2.5061603 -1.3996886 -2.3921125 1.1443589 -0.027988968 -1.322503 -3.2139096 -0.51112074 -0.45681655
协 -3.3735352 0.8949631 0.9781658 -2.7980895 -0.10700044 1.1976931 0.5815636 -5.569842 2.2833774 1.2788633
R 3.2419581 -1.4184489 -4.3572965 4.958315 -2.2383559 -2.773866 -0.4059493 -1.1271478 1.4565175 0.6337748
继 -0.5608187 -2.6064959 2.7158766 -2.2216709 -2.6599028 -1.1989152 -4.397009 -2.0219078 -0.91529375 0.05124368
希 -3.6811435 2.5005202 6.1636357 -0.64648175 0.40101936 -2.5546594 0.22986276 -2.7115867 -3.2408147 1.0822598
略 -4.692298 3.0365205 0.9749581 1.6095914 0.8642303 3.6006613 1.9840763 -5.5041914 -1.632492 -1.1799684
终 -0.6083976 -0.3649972 -0.95806944 0.31546968 -1.7081473 2.1329556 1.0566981 -1.1682556 -2.1728103 3.1143486
始 -1.5793586 -2.7127614 -5.7522993 -1.3473625 -2.2843437 1.4379917 -1.8955443 -0.44403252 2.507809 2.3373156
封 0.35882255 -1.247906 -2.3655243 0.7093945 -0.25183132 1.4331021 -0.101727754 -0.9331906 -0.05854964 -0.24922568
魔 2.4239972 0.50244576 0.33367586 2.2730603 4.728757 1.715926 3.1103342 -1.8504797 -1.9569875 3.0482886
给 -0.6348203 -0.8016293 1.7687376 -2.2964566 0.35791317 0.30432773 0.32911277 -0.52214295 -0.91420555 0.17365363
W 4.069828 -1.2245281 -2.455204 4.336115 -2.7436726 -2.0726473 0.11244897 -1.7541968 0.81938356 1.28733
曾 0.4864329 -1.2626646 1.9973787 -2.717505 -0.13117324 -0.21318023 1.6671029 -0.20345652 -1.5885849 0.16928728
像 2.650151 -1.5727385 -0.2688267 0.19573747 -2.8428884 0.5698237 3.0760784 2.521004 -0.9846979 -2.3587947
迷 -0.21198523 0.09055205 1.6335399 0.8981443 1.7953583 3.007077 0.18605845 -1.4634086 -2.85984 1.1768657
营 -3.6772218 1.9185927 0.34790465 -0.02624787 0.4939087 3.770592 -0.3149372 -2.6170511 3.209286 -0.9270831
牛 -0.41836724 0.029179007 0.7319193 1.3077328 0.5187772 1.2131999 -1.6531416 0.38827032 0.30321068 -0.46835572
村 -1.4262527 0.77550507 1.9539819 -1.4241923 2.3963552 0.6733705 -1.6094859 -0.41052675 4.147507 1.8345424
命 -0.44144872 0.5995886 1.6353433 -1.7189598 2.1571162 2.2402008 1.8488541 -2.1811662 0.48921064 3.007119
步 -2.687375 0.28030974 0.9896194 0.84638464 -0.7576087 1.807611 -2.736463 -2.7290168 -1.6509348 1.6198497
退 -1.379798 0.519807 2.7439246 -0.85751545 -0.72978115 2.4228275 -0.9967068 -2.256587 0.1268201 1.7909576
汇 -2.3328292 1.2258868 -0.7360326 1.0121679 -1.8496621 -1.077462 -0.05554018 -0.53685564 2.3316221 -1.9005495
众 -1.2004051 0.112110786 0.9607378 -1.8257428 1.4172823 1.3070472 0.52593416 -1.7162095 1.12317 0.75862753
配 -0.33343735 0.34383476 -1.309844 1.3095878 -2.1575918 1.3300422 0.5527602 0.9505308 2.1452322 -1.2269356
九 -1.8025274 -0.9299561 -1.8569548 0.71033543 2.2079084 -1.9740405 -2.6239667 0.8347513 -0.52427435 0.7150015
妻 3.132125 -1.5061525 4.5298 -3.3490183 2.2669585 0.29555035 2.407041 0.7671508 -1.2129925 4.4339547
八 -2.2005472 -0.24999692 -1.0011477 0.30150384 -0.24305992 0.1568964 -1.9945686 1.0690306 -0.49644038 2.548629
夺 -0.5405202 0.13810118 2.4912906 0.59671694 2.704653 -0.7827567 -0.9367 -2.9537454 -2.8804183 1.6806029
络 0.4076522 -4.986407 -4.953591 -3.6284547 2.562963 0.8101387 -2.2627065 -1.885568 2.8801239 -0.4193062
移 -2.3280704 -1.2961161 -2.0379326 -1.8218186 2.1959493 1.8388875 -2.5622563 -3.7855036 3.7599056 -1.0703886
医 -1.426453 -1.2778177 1.4883087 -5.688514 -0.106958956 -0.1717832 -0.34905776 0.9826276 4.4151125 1.7365588
容 -1.1875386 -0.056364346 0.65022004 -0.6007456 0.63721955 2.1165185 0.9188925 -2.1409001 -0.83493394 -1.7340643
刑 1.1467233 0.0076630074 4.700662 -2.0280602 -5.675456 0.3462146 -0.97870106 0.23429717 3.668896 6.262631
威 1.3848082 -0.07616198 0.85248965 -0.28045377 0.50462747 -0.7216864 3.249955 -3.4512472 0.6525326 -3.5834746
盟 -2.7426956 0.862866 0.08157312 0.30105034 -0.0006995976 -3.4825468 -1.1123952 -6.4461484 0.34075624 1.2376704
项 -4.0389037 1.453533 -2.2169652 0.7346178 -3.7472055 0.57475317 1.518193 1.7744281 0.2844685 0.06526469
播 0.3485106 -2.2917342 -3.7751613 0.22430177 1.0290623 0.96941113 -0.438804 -3.2529778 -1.0430999 1.2040832
从 -0.96055585 -0.064385846 1.047206 -1.0410135 -0.34909835 0.06710197 0.05471695 -0.29605046 -0.28201592 1.0687754
请 -1.1784928 -2.4152672 1.135388 -4.8873353 -2.2985222 -2.7168987 -1.0194236 0.83109045 1.0970764 -1.0321293
劫 5.739801 -4.439427 2.3000367 -0.030969298 1.2424998 0.017555613 -4.0173407 1.1235209 0.58221376 0.9776499
唱 -0.65216434 -2.5663402 -3.5764735 -1.9232342 1.9854318 1.487887 0.8286413 -0.9830093 -1.4928031 0.33221045
印 -1.1976368 2.9723146 1.1050519 5.039984 -0.027523534 0.25355634 0.9205208 -4.3707767 -1.9702414 0.13531327
验 -4.9792647 0.7569131 -3.0953827 -2.66663 -0.9136267 2.1775641 3.4411118 -0.4055576 0.72652054 0.12764107
派 0.8361291 -1.0123507 0.07958168 0.004674312 -1.0785861 0.11359123 -1.1155157 -1.4199435 1.0838878 0.070978425
角 0.15424953 -1.0426012 -1.549383 1.0920713 2.2985888 1.3748567 0.2802748 -2.9501953 -1.548438 -1.8661807
曼 0.8806137 -0.6124682 -0.77944195 1.4476207 2.515416 -4.0894065 -0.34834582 -4.934806 -0.59545535 0.79315084
温 -1.9792253 -0.38122436 -0.05447846 0.35626444 -0.017140677 -0.9927921 -0.72267604 1.4248936 -1.1324253 -3.3519466
说 0.23875675 -1.3194588 -0.65608203 -2.262674 1.0554342 0.5904613 3.3832505 -1.8873302 -2.176552 0.71085584
袭 3.920131 -1.9399818 3.6366003 1.9348406 -0.044170145 2.5967796 -2.6643198 -4.3928523 -1.5159719 0.50096565
狂 2.5205169 -2.5645485 0.013839024 2.2881863 0.8356538 2.1616848 -2.4816785 1.6552093 -2.8616087 -0.44407332
确 -1.5977991 -0.15441039 0.048551016 -1.4042448 -5.4981437 -0.39093053 1.7569227 -3.2083158 0.02443107 -0.99011546
K 3.5497477 -0.7794955 -2.7905452 4.1666455 -1.4670398 -2.8261697 0.40712336 -1.5648444 1.0147022 0.77207255
骗 1.6683844 -1.1720222 2.6017134 -2.8862004 -2.6261227 1.2854854 -0.5243809 1.481077 4.784817 1.6593426
h 6.5842824 -2.9076667 -3.1620018 4.2144265 -3.982046 -1.219382 2.250881 -2.3868103 -0.2405342 2.9475393
酒 0.99135256 -1.7263256 0.29017773 -0.8890977 3.0879955 3.527319 -2.2862275 1.9061395 2.6054564 1.212889
父 3.2360053 -3.7723706 3.5409856 -5.6910534 1.6782206 0.050203748 2.3643174 2.3082418 -2.0205607 1.5650713
器 1.3816537 -0.6331102 -1.3183063 -0.16609836 0.91134816 1.8471766 2.2859256 -1.5786681 2.2389083 -2.1548388
章 -0.49984586 -0.4374314 -1.900608 -2.7252007 1.9270555 -1.9949155 3.8920152 2.276054 1.1470953 3.8117096
荡 -7.9481 -2.3338406 0.25317234 -2.3459013 -0.5683968 3.3104715 -5.80983 -2.8193934 -3.5575566 -5.3797026
类 -2.9973464 0.47152296 -0.67431915 -0.8823916 -1.119285 1.3724837 -0.35192868 1.366308 1.5613513 0.5912259
料 0.3530073 -1.2863307 -1.6141254 0.7039155 -2.082826 2.0299697 -1.0170361 -1.3338622 2.205964 -3.5850904
m 3.549098 -2.1638837 -2.7549284 5.164786 -2.6305838 -3.7156453 -1.2394855 -1.3037235 -3.8035636 5.157335
杯 -1.7531046 1.9018215 -0.0671667 2.237417 2.1400526 -1.906056 0.8489581 -1.4593025 -0.6099914 1.9545596
艺 -2.8859715 1.9604735 -0.9906131 -1.1529349 2.617353 -0.08453956 3.9791172 0.66684014 0.10142004 4.678489
社 -2.271454 -0.41765288 -1.4974402 -1.7087017 0.91881984 -0.33259815 -1.6071544 -2.1584501 3.7400632 0.21469702
属 -1.4833559 0.5709736 0.473253 -0.23330702 -1.6201953 1.4239185 0.70111674 0.36507088 1.8594077 -2.57657
临 -2.0781043 -0.64328456 -0.9562998 0.15689029 -1.1589408 2.8235135 -1.3401299 -0.30924714 -1.5590321 1.261503
益 -1.6839658 1.1807262 2.356764 0.04346956 -4.05654 1.1111304 -1.0728312 -1.7546271 2.7407389 -0.88225377
满 -1.5748575 -0.37307656 1.3848419 -2.16296 -0.65774596 1.3946668 0.63895005 -0.18878372 -1.4611058 1.5453225
义 -1.0567026 -1.3457879 -0.031989798 -2.6075506 1.4477732 -1.2102143 1.1461557 0.6318314 0.28409854 -3.46012
康 2.282997 0.9726564 0.21177544 4.0684667 -2.3292918 -2.5201995 3.253002 -1.5991795 -0.96192753 -3.1257436
习 -5.6933427 0.9498156 0.15879099 -3.4591 -1.7048715 1.1950066 1.4352249 -0.3438085 -0.8416605 2.9523935
征 -0.1662237 -0.47472033 -0.98857975 -1.3280065 1.075611 0.23772016 1.1939267 -0.72211295 1.4752476 0.94885874
航 -0.62731314 -1.4450765 0.92483854 -0.7719146 1.9031898 -0.7846318 -4.041791 -2.1065958 1.1346422 0.21590976
店 0.72623706 -2.1777546 -0.8224625 -1.4869117 2.166237 3.2513947 -2.26801 1.9305251 3.4753735 0.22305302
智 -0.6033267 0.7040944 0.67872864 1.8402541 -1.7015655 -0.18805845 2.101182 -1.0391401 -2.6471667 -2.9718428
写 -0.6005776 -1.8877088 -2.9000757 -2.0970485 -0.03555471 1.3094615 2.3770573 0.5447213 -1.159947 0.50553507
追 0.4720132 -0.71280754 3.0945184 -1.3353628 -1.140338 1.2049354 -0.68740183 -0.92191494 -0.85512865 1.3778933
远 -2.1592898 0.5031318 0.7560555 1.14349 1.4874576 -0.008248652 -0.513782 1.4715492 -2.3766243 -0.90595376
仓 -3.472109 -0.3089386 1.6175296 -0.6069178 -3.9110324 0.5819784 -3.4933918 -0.58177435 0.5513983 -2.3744524
也 -0.45590642 -0.4709083 2.558611 -1.3062632 -0.61175174 1.6887637 0.857649 -0.80737734 -2.273354 -0.26382703
激 -0.9439603 0.1398505 1.1849973 0.10721843 1.2825707 4.102768 1.107943 -3.0588152 -2.0660405 -0.6144638
犯 3.3277469 -2.198884 3.2505114 -3.9671042 -2.076467 2.6589522 1.4055058 -1.6506661 3.165915 0.80394006
构 0.23383375 0.5292423 -0.879008 1.5943191 -3.1179748 4.7941556 1.7023213 -5.3909535 1.4969699 0.48557892
露 1.5920187 -4.197806 -2.287561 -2.29822 0.708828 -0.22520867 0.8510036 0.9643571 -2.2702994 -3.6950266
坦 0.40721598 -0.30455524 1.246265 -0.9193382 0.5627889 -2.0338151 1.9969647 -4.396758 -0.12363772 -1.7542145
洋 -2.440319 1.7907397 1.8290181 2.613747 2.7288184 -0.13613567 -1.5944617 3.0311892 0.06512545 -0.94945306
岛 -0.4661818 0.31754643 1.0362093 1.5286037 3.4534564 -0.57069904 -1.6848013 0.9765125 -0.49667734 1.2128327
每 -1.3432164 -0.45580798 -0.9718595 1.2653896 -1.477107 0.2188199 -3.193913 3.6077967 1.113258 2.0929234
越 -0.06195908 -0.45239583 1.1710474 1.4686064 1.6098872 -0.0542538 -1.3267243 0.31375608 -2.6656232 0.46592084
刺 2.2677467 -3.57142 0.6780724 -1.5343794 0.54172647 1.4683917 -1.7788734 -2.6962461 -2.3617868 0.009750217
危 0.8544831 0.59670717 1.0405526 1.3915198 -0.92798275 3.969913 1.1453065 -4.731473 2.4860275 -2.6408753
使 0.96245754 -1.84196 -0.80990314 -1.5899101 1.2026991 -0.22409251 0.34045085 -0.17345355 1.261814 -1.3860649
委 -3.8306859 8.650859e-06 -1.6087513 -3.8577254 0.37834233 0.15154442 1.1936511 -4.5947256 3.0662484 0.71826744
诉 1.69261 0.8406018 2.3622391 1.2052369 -1.6892151 0.9020026 -0.73525214 -2.0239215 3.0728195 2.8674397
私 0.7536949 -2.377029 -0.9912012 -2.4889178 -1.6314565 1.3509022 -0.83857554 2.5194688 3.381875 -0.946408
种 -2.0936434 0.2423206 -0.3053076 -0.38744277 0.47640806 1.8319554 -0.41229787 1.6964965 0.7744731 0.3494097
列 -0.53162795 1.5479697 0.61899906 1.3269058 1.1611274 2.5764124 1.8924686 -4.0553775 1.2347997 -1.0175565
早 -2.986663 -0.24383083 -1.8062336 1.498904 -2.9411685 1.9802139 -2.4511623 -0.99504244 -1.32314 1.4298656
汉 0.7898634 -0.37481108 -0.5419826 -0.58329815 3.4032815 -1.4269589 1.5091996 1.3066397 2.126042 -0.8923103
夏 -2.2839646 -0.4284588 -2.659719 1.7019135 0.28087658 -2.8404613 -1.18128 -0.92447364 -1.6366718 -1.0660571
常 -2.458753 -0.20880574 -0.9805133 -2.2037349 0.60464156 1.1962715 1.3249619 -1.280739 -0.0038737184 0.22490112
典 -4.8278804 1.7844076 -1.37108 -0.83865154 2.1697826 1.6278079 3.1879144 1.7514665 0.15177079 -2.2848375
恐 1.2683111 0.02722776 2.8966749 0.84648293 -1.1202471 3.2669315 0.97902334 -3.8190699 -1.6766903 -0.2896199
换 -0.31365326 -0.3055719 1.5091188 0.03501497 -0.64515364 1.566899 -0.8468406 -1.530515 -0.5513325 -0.46584067
皇 2.6357234 -1.5198181 1.9996889 1.104377 4.6568313 -2.3991077 -0.3947224 -2.6196573 -3.237222 0.06180049
治 -2.3705049 -2.3327076 -0.040387444 -6.080977 -0.31673998 -1.2125663 0.21494728 -3.8843365 0.61394954 -0.55107707
额 -1.5001662 -0.19925533 0.6558819 0.58771443 -5.4704967 0.568462 -3.6387434 -0.53706056 3.4823124 -0.5269439
童 1.4986686 -1.4282309 2.8354447 -3.067627 3.5876472 0.796614 1.6324865 3.2727664 -0.47346488 1.5518812
音 -1.6296936 0.55594504 -3.2703261 1.6515123 0.83019286 1.9548875 2.9818525 -0.6244837 -1.357998 -0.79963946
范 -1.5507413 -0.29082888 -0.51262474 -2.552302 1.868093 -0.53809935 2.7034862 -0.4331544 0.15117778 -1.3308429
软 2.2150652 -3.831827 -1.5294222 -2.7211523 -1.8645638 0.082994066 -0.15068993 -0.78186315 2.4720259 -4.6725636
募 -0.09689885 0.5723481 -0.35433704 -0.15077263 -2.4560595 0.25860292 -0.4399562 -1.140657 6.4054265 0.08214691
必 -2.3819103 -0.69400626 0.0026194542 -2.4982781 -2.0890162 1.1323931 0.71478546 -1.8304507 -2.0199504 2.9354796
菲 2.7670166 -0.18816157 3.2890303 -0.78845406 1.3955623 -2.7636437 3.7518542 -0.47598764 -0.16687618 -2.203401
c 5.653204 -4.938286 -2.0536485 0.926631 -4.459338 -5.285354 -0.3122959 -0.9013976 -2.1205873 4.7810974
土 -2.3106453 0.40616456 2.5201027 -0.9321695 1.3862364 1.5904952 -1.7654408 -0.727681 1.6361045 -2.7633593
补 0.2644162 -1.3020017 1.4708844 -1.527574 -3.379132 0.53954256 -0.24802221 0.3767192 -0.6792823 -0.023376128
迎 -1.5252358 -0.8788003 -0.12185101 0.4874743 0.65542716 0.9072787 -1.4230626 0.29379064 -3.6778448 1.8475623
拒 2.54622 -1.7227254 3.5483115 -2.9689846 0.26816025 0.58626366 0.9060291 -3.1489675 -0.11544354 1.5017251
荐 -1.8473799 0.27040622 -4.9304137 2.7721183 -1.0650394 2.8432286 -2.649688 -2.8862543 4.1914716 5.1920176
包 0.95306003 0.1053495 2.1292195 0.42548168 0.87510115 3.1425924 0.09217503 0.9729824 0.94016653 -0.18348837
阵 0.39321917 -2.2088652 0.2995208 -1.4601613 1.2190958 0.8158167 -0.36549658 -2.421033 -1.8199531 -2.3030522
才 0.3180306 -1.3915907 1.1200929 -1.2310644 0.25821042 0.6810089 1.2241001 0.65589476 -3.7525837 1.0661508
篮 -0.5156114 -2.0962029 1.8803377 -3.2964413 4.0177994 0.81429464 -2.6439397 -1.2783605 -0.13626054 1.8843931
街 1.8272887 -0.3395868 1.3421315 2.0028706 2.3817294 1.3852569 -0.3288731 -0.24617976 -0.4903467 -1.1553464
承 0.5441598 -1.7465369 1.6519794 -2.5944026 -2.611885 -2.709273 1.3033513 -1.8654753 -0.56291753 -3.91616
闻 0.65339017 -1.8248665 -2.8585448 -2.716989 2.3819847 1.0768024 4.552992 -2.1270247 -0.12567222 -0.90731233
嘉 -1.2151513 0.060544316 -1.2633379 -0.3720994 0.69040954 -3.3453188 3.688639 3.2055676 -0.9123335 -2.3895173
极 -0.7349795 -1.5250322 -2.2221768 0.32748848 -0.3861438 3.241324 -0.89890015 0.54641527 -0.42852727 -0.91795325
惊 0.89528584 -0.984114 0.040482596 1.6929444 1.8473798 3.4511597 0.42335686 0.5044879 -3.2431746 -0.5584562
毒 2.9502134 -1.9109858 1.8905417 -2.0326648 0.4579826 3.7926285 0.2606564 0.34875208 3.5859149 -0.9344532
萨 1.1447756 2.1172807 4.580342 2.6113195 -0.22510014 -2.7486768 1.4149387 -3.9200459 -0.4041265 -0.82654893
炸 5.6935406 -2.987882 1.1869469 1.7991514 -1.2404917 4.7707243 -2.065511 -2.3613586 1.6561548 1.1771513
古 0.21385778 0.6845062 0.27261397 1.5256895 2.4904814 -0.21922143 1.6887319 -0.93097126 -0.62503874 -1.4758891
响 0.7715967 -1.3561522 -3.1885235 1.2331647 0.835945 4.5140147 1.7926395 -3.8078935 -1.4886158 -0.06747032
史 -1.3488429 -2.3753111 -2.9747174 -1.5341287 0.16964278 -2.2038255 0.30317453 1.5396487 -3.2816908 1.2487732
各 -3.497771 0.9105792 -0.12788002 -1.0934403 0.14292341 0.49978858 -0.3042323 0.15312223 1.253834 0.7752008
轻 0.50318754 -2.0971859 -0.71520495 -0.483077 -2.2274039 -0.283039 -0.40858883 2.671478 -1.7808342 -0.48994094
托 0.7818832 1.3323988 2.8081894 0.52480763 0.28470913 -2.6272726 1.4840328 -2.4736419 2.188239 -1.8661455
归 -1.6008925 -1.8208582 1.7929283 -2.1929626 -0.4656383 -0.7294809 -1.7872269 0.60128784 -2.5853179 -1.407527
倒 -0.57170343 -0.5239082 0.18375632 0.25434586 -0.48609662 4.515695 -1.7711388 1.3548727 1.2722235 0.9934063
七 -1.7986856 -0.5371928 -1.2265955 0.35070133 0.36528477 0.29874063 -1.8051857 2.9013162 -0.66594124 2.5947669
丽 -0.25910085 0.22762808 -0.40477926 1.6338637 2.4203713 -2.7488601 2.289679 2.061733 -2.4576929 -1.9469434
思 -1.9035625 -0.1173873 -0.55738723 -1.2397497 -0.4948194 -2.1386478 2.9423635 0.09308169 -2.6299245 -1.2359041
瑞 -0.80112946 0.2316724 0.06508258 0.08111386 2.0047617 -3.4851375 0.32592073 -1.7981384 1.8755136 -3.6412141
彩 0.6917396 0.6126405 -1.6543763 2.5003006 2.4260528 2.727773 1.2617797 0.7031679 1.9522636 -0.6790456
历 -5.207641 0.6273568 -0.73694247 -1.9837394 -0.07410489 1.2617886 1.4075439 3.72128 -2.1692579 1.1289896
练 -3.736082 -0.3644113 0.9720671 -4.9114537 3.3052583 1.6476678 2.1102488 -1.7983031 -2.570003 2.8362525
副 -3.6939056 1.2398907 -0.41184226 -2.0255282 0.11401175 -1.3627875 0.2729739 -3.31374 3.746631 1.2577533
朗 0.6115747 0.22773176 0.3826297 0.27889225 -1.4945977 -3.3775234 2.4933255 -3.9743288 -0.016393518 -1.0917792
央 -3.6603112 -1.1497356 -4.1584425 -1.4579141 2.2443802 1.3496071 -1.7023191 -2.856106 2.4079576 -0.52958894
剑 2.1849642 -2.307373 -1.7282346 1.2879928 3.749186 -0.6108163 -0.14128833 0.29204473 -2.23841 -0.11324349
枪 3.3893015 -2.6804333 0.9957354 -0.44570532 0.8527485 1.7172586 -1.5873783 -3.06913 0.15696406 1.3621705
倍 0.18625973 -0.7279612 -0.40783322 2.3230727 -3.4764857 -1.2674949 -1.649105 4.955733 -1.4438095 2.0306036
拿 -2.2614398 -0.032574717 1.6709611 -0.63685787 -0.7958182 -0.75481606 -1.8278974 -0.8432526 -0.86923087 -0.27950722
很 -0.69979644 -1.4140475 1.2191606 -2.054953 -0.7625497 1.192054 1.3240656 -0.048346758 -3.3222795 -0.8713898
跳 -0.73511624 -1.2165945 0.7618325 0.8114871 2.1201632 2.916168 -3.6162958 2.6706016 -0.62211454 0.18818119
浪 -1.3986858 -0.37314016 -3.0934904 0.9306845 2.0666099 2.3271613 0.70302135 -0.20531628 0.6772138 -2.2166684
败 1.4166881 -1.1664934 4.0443377 -0.2713655 -0.6442053 0.87410194 -1.8329549 -1.7294148 -2.332525 1.0544943
声 -0.4070502 -1.1847843 -1.3339477 -0.2800197 1.1125727 1.0581907 1.3381202 -1.0633337 -2.6680427 -0.51017547
围 -0.55588424 0.6368849 2.7469733 0.30349186 2.6863952 2.9625094 -1.0353727 -1.3830477 0.41204175 0.26868138
陆 -0.328248 -2.3237286 -2.2258217 -0.4193178 2.1559525 -1.4254261 -2.6266248 -1.5929754 0.053347826 0.08463929
稳 -3.7449925 1.4336997 1.322964 0.61503696 -3.24539 0.97108513 -0.76370597 -0.5741667 0.6918659 -3.2109528
促 0.56976503 1.3093455 -0.68623465 4.765594 -1.7496474 2.3037925 -1.051977 -2.6003685 2.376481 -0.45847708
硕 -0.13840224 -2.0370235 -2.2325776 -2.633295 -0.15261054 -7.7785807 -0.9797467 0.7790413 3.5647705 3.1191483
澳 -3.4165926 2.1001956 2.6179526 0.44843423 1.5296861 -2.543909 -2.5128925 -0.8956806 3.0689445 -0.22698948
午 -2.8857791 -1.6878091 -3.745774 1.6762805 -3.220498 3.825712 -3.975224 -0.0819609 -1.3431935 2.6107373
雅 -1.2436856 0.488254 -1.210095 1.1042266 -0.34625968 -2.1989462 3.5615587 0.3424932 -3.6030471 -1.134796
币 -1.5259864 1.2191907 1.7960824 1.6396202 -2.0358617 1.418229 -4.088211 -2.7457054 5.5872254 -0.92300063
馆 0.31917349 2.7935014 0.18405727 2.9297569 1.9051368 1.4246215 1.4936244 -1.7468557 4.3144917 2.6341481
钢 -1.9515026 -1.2461855 -0.4000821 0.15866868 -0.7392084 2.17034 -2.5852697 2.0162787 0.96092963 -4.808037
逃 3.0861843 -2.1061823 3.1526635 -1.0328546 -1.5399376 2.8097568 -2.3036354 1.0046889 1.6651582 2.1108801
宅 -1.7951059 1.1678222 2.9151623 -0.34103638 1.7623363 1.9480174 -0.8619121 4.7892165 3.1383877 -1.7442749
箭 1.3807478 0.103286505 3.23686 2.9820945 2.2843874 3.4184935 -1.2979255 -3.3534987 -3.1092663 1.6005039
撞 4.473348 -3.0624301 3.2679365 0.6422605 0.70654005 3.1460068 -4.3224363 0.5226221 1.0132627 2.0142884
携 2.393183 -2.9796085 -0.8651833 -0.986283 1.1477154 0.088387884 -0.47124448 0.8664338 -0.29400054 -1.0023694
谷 -0.5421015 1.3482082 -3.1792183 5.068341 1.5137657 0.99284804 2.2043538 0.042381924 -2.0410318 -0.5130564
锋 -0.46905786 -1.4815607 0.06747877 -0.21885727 1.2980566 -1.1522444 -0.68837583 -1.6691636 -3.763757 0.6274625
竞 -0.6113794 -1.8826109 -1.4798101 -1.5046043 1.1536912 -0.37093577 -0.26204377 -2.574618 -0.98897535 -0.9250846
止 0.56739146 -2.1948128 1.4158311 -1.8723099 -2.7174172 1.8193307 -2.8810859 -2.6194248 0.9095849 1.0819637
状 -1.7359476 -0.18039785 0.054912902 -2.2232664 -3.0999837 -0.24298628 1.0707599 4.160758 2.5212762 -1.5606546
榜 -1.4810486 -0.09492755 -1.1904818 0.62509876 0.9418015 1.4943073 -1.251217 -1.2206634 0.12872495 1.7010617
雄 -0.21717541 0.24512975 -0.0066993763 1.0575682 3.8871496 -2.6807368 1.4346112 -2.8231514 -3.116261 2.981568
跑 1.6423581 -1.5612478 2.02671 1.6059039 -0.2210848 0.73476255 -3.1775863 -0.9143977 -1.2747562 -1.3453759
夜 -0.15120232 -1.6581235 0.06543142 -0.25353244 1.7803378 1.5172069 -2.3945322 0.64277065 -1.5163648 1.8237182
恒 -3.0674672 -1.5633276 -1.8949585 -0.88829553 -2.1657326 -1.5697534 -1.3537025 0.26302743 -0.80025023 -3.921012
供 -3.0054848 1.0977895 1.6103599 -0.5886863 -3.638624 1.6715236 -0.8465877 -3.3117065 1.1104683 0.2900989
森 2.5560498 -0.18606918 3.6084306 0.7730381 0.11416192 -4.3911 1.7631235 -1.5720656 -1.2107373 -2.2023218
幻 2.9478776 -3.736798 -2.977805 0.69447273 3.8971648 -0.31055212 1.3733226 1.0675244 -5.542653 4.1278124
郑 -0.96885294 -1.2960927 -0.86172414 0.9437259 -1.8403183 -2.619595 -0.20390439 1.9465253 -2.4434862 -4.7279286
并 -0.19377932 -0.88559604 0.8052859 -2.2984178 -0.79458535 0.85541666 0.568269 -2.8480241 1.0734013 -0.14335732
共 -1.7933657 1.9159541 0.87321126 0.17212729 -0.25085196 0.3640498 1.0625376 -1.1162965 2.0087435 1.4302804
令 0.6261544 -1.6362855 0.8264153 -1.9348409 -0.8156095 -0.09724188 -0.5424171 -2.1167216 0.43272495 -0.3827243
审 -1.7380121 0.39646497 -0.16978116 -1.8062984 -4.2254972 1.4739418 1.1018385 -3.0322483 2.0393174 3.0696528
延 -2.2875295 -1.487802 1.0986267 -1.3025252 -2.693793 0.5638538 -4.7366776 -1.4597874 0.34675348 0.6816714
诺 0.4790231 0.083758816 2.8292582 0.68205833 -1.6838347 -3.8126469 0.18174426 -4.187134 -0.6862073 -3.2013946
焦 -1.5234969 -2.0258405 -1.1331415 -1.1406611 -1.4654983 0.83911705 -0.73990625 3.4724205 -1.2190738 -2.9869165
态 -3.3788545 1.1695257 0.14115208 -0.4224478 -1.7675079 2.265715 2.515323 -2.8961084 -2.342474 -0.40459335
素 2.4251122 -2.39248 0.8804403 -1.7548568 -2.398552 -0.347603 1.8656055 3.4016454 -0.01821934 -3.5062408
施 -1.6487628 -0.66369516 -0.0810905 -2.9460921 -1.1149069 0.56943005 2.0305698 -2.838633 1.2801186 -3.5469272
? 0.071580485 0.5412368 1.311572 1.805978 1.0812979 -1.861729 1.1290729 1.4961601 -2.5066407 -0.8592055
涉 1.9296647 -1.0779338 2.5004296 -3.067499 -0.8365715 0.8744272 0.8791538 -1.1035446 4.148208 -0.4508273
赔 4.1792192 -1.4481071 4.685158 -1.1471041 -5.7625504 -2.6800096 -0.3865705 -0.14529222 3.2783747 0.15214074
置 -4.210008 2.4015355 0.49927008 0.5964687 -1.5220599 1.5456138 -0.14467388 -0.61862975 2.3990557 -0.823673
免 0.048409365 -2.585027 -0.6553334 -3.8235083 -3.8307514 1.1665913 -1.0000918 -0.37281942 3.3718443 0.8003516
杰 0.46587524 0.16768621 2.4762537 2.8861454 0.77278626 -4.5250926 0.47217515 -0.90661657 -5.3162284 -0.56367743
护 -0.06149968 -0.7347156 3.6639304 -2.8897688 0.58685243 -0.105302386 -0.93861175 -0.9593403 2.3821669 -2.155798
哥 0.23681572 -0.42543375 3.0543475 -0.06294128 2.1931357 -2.3017976 -0.967934 -0.6143492 -1.6941051 -0.30265847
宁 -1.6246533 0.77869534 1.2052013 0.745891 1.4672966 -3.598809 0.46674016 0.30563056 -2.5531766 0.19696711
庭 -1.2158403 -0.18347786 -0.25196 -2.324357 0.6217818 0.300062 0.45475417 -0.32434362 2.6806107 1.6682466
裁 0.11288772 0.56701505 1.7866277 -2.3602388 -2.241668 -0.9451544 2.5026994 -4.5272474 2.9865775 0.7641661
兵 1.4341834 -1.4688069 0.8885054 -1.8899536 2.5053613 -1.154181 0.5520931 -0.6826262 -0.16191821 1.2497696
然 0.30610052 -0.7541056 3.583076 0.037208218 -0.7963928 2.036762 0.66340816 -0.35877207 -4.663843 -2.1253846
探 -0.30250838 -0.7018191 -0.35432664 -1.1440187 0.3270491 -0.46039402 0.19787931 -1.4575475 0.16309467 0.87653065
边 -1.386727 -0.30796 -0.37560314 1.1530863 1.876246 1.1749647 -1.5919118 -0.021784725 -1.6043255 0.55331975
y 2.882906 -2.5746963 -2.8034568 0.34722084 -1.2596831 -3.0303414 1.1192296 -0.35333654 -0.08206844 1.4898252
条 1.0571889 -0.06856885 0.9432385 0.29802272 -2.2517636 0.3033309 0.04130467 -0.15127236 2.237381 -0.31175303
画 -0.47142494 -1.6022152 -3.5343096 0.22369914 0.27611175 2.7403252 0.6456333 0.08218756 0.33179152 -2.5324795
谁 -0.36786988 -1.35866 1.9271215 -1.7861017 -0.5720242 1.260964 1.033943 -1.910717 -4.0758862 0.58544797
血 1.7126443 -1.8873199 0.6339324 -0.2613649 2.4806938 2.293056 0.20790583 -0.19483991 -1.7205862 -1.5922918
伦 0.07009668 1.0730164 2.3532114 3.1533206 0.45261583 -3.8014476 0.61645657 -2.5451186 -2.7812839 -2.36849
峰 -1.8229189 -0.9101523 -2.2299411 -0.13814396 0.43750456 -2.3219812 0.8143616 -2.548358 -2.9725287 0.07425962
雷 2.223909 -0.59756047 1.9758191 0.7207375 1.7418305 -1.9871569 1.5601578 -2.7626147 -2.3641756 -1.2515253
缺 -1.7729199 0.82460296 3.328596 -0.23632927 -0.5251292 2.665624 -0.3643931 -2.205321 -1.4134746 -0.60381114
喜 -0.5211525 -1.2037847 -0.10039128 0.27798477 0.71872383 1.8370395 1.0159934 1.3166327 -5.158895 0.5972087
紧 -1.9747224 -0.26131833 2.352071 -0.9666438 -2.513437 1.4261885 -1.138107 -1.3864549 -1.014167 -2.1639462
象 -0.69409084 -0.6868975 -0.6613771 0.08623052 1.6865942 2.8295045 1.9097066 -1.5879903 -3.092964 -1.6379535
绿 -1.1622057 0.6468067 0.45496103 2.4242716 3.835487 0.8499528 -0.792785 -0.7795013 -0.34197956 -3.2135303
摩 2.1853144 -1.2733319 1.0289826 -0.618065 0.16815439 -3.1363125 -0.064439744 -1.6817154 2.389707 -2.3536537
盗 2.921115 -2.907938 0.85969293 -1.3808198 1.9172148 1.4740169 -2.9776373 0.48011562 3.7507012 -0.6168268
锦 -5.9186745 4.8301854 0.8698121 3.800472 1.9091774 -1.6541029 2.5280745 -1.2166243 -2.793733 1.627663
妇 0.6888998 -0.5388026 5.000041 -3.4715707 2.2557778 0.3061873 1.2454438 2.757642 -0.478945 2.1899168
谢 0.5748272 -1.3129065 0.8121079 -2.3463268 2.5505438 -1.5252249 3.970827 -1.660527 -3.7951767 -1.0042864
潮 -0.7940328 -1.0667193 -0.8970298 0.6150555 0.45643598 3.2565746 -1.0412565 0.32432213 -1.0928648 -1.0978807
念 -0.5539974 -2.5655627 -3.7721472 -1.8638393 -3.1977773 -1.9180452 1.580253 1.2958394 0.60295516 -3.9856353
恋 0.8239059 -2.3388171 0.27006784 -2.609619 1.8874944 1.7755419 2.0389514 0.59776133 -3.1541014 0.78826004
形 -2.3807247 0.43205884 -0.33075687 0.13691777 0.09781441 3.830949 2.1571078 -1.3232894 -2.197371 -2.2952318
冰 -0.14823195 -0.38185006 0.7233845 1.4913006 3.7289336 3.0050595 0.9765182 2.2545962 -2.6914327 -3.091156
刀 3.4954782 -2.6865273 3.4177775 -0.7095285 -0.253874 0.42819047 -2.779611 -0.3242738 -0.637338 1.5636457
据 -1.1505486 -2.4475553 -0.27061152 -3.211332 -5.5186663 0.8148523 -1.2533619 0.39860636 0.7980822 -0.72806764
灵 1.4470819 -0.037302062 -1.0929428 1.8946894 3.688469 1.4350759 2.383257 -0.085724875 -0.507763 -0.71296155
甲 -0.12084347 0.6098706 1.4826816 1.5221599 1.2814102 -0.71985334 -0.37215135 -0.96792334 -0.46600017 -0.8363134
松 1.8290869 -2.9188056 -1.0461121 0.7200337 -1.6252196 0.3707529 -1.3337835 -0.023028975 -2.61883 -1.360543
润 -4.00681 2.2868109 2.9143007 2.6074765 -1.1643747 -2.8685355 -1.9446068 1.940833 -0.6592939 -2.9467945
境 -1.1761076 -0.40420216 0.4860442 -0.34407443 2.6227357 1.459069 -1.527993 -0.7536334 -0.025495587 0.2716342
弃 0.5973264 0.49422744 1.3650011 -0.30462417 -0.43909225 3.1873436 1.397039 -1.8758278 1.3266166 1.9315237
欢 -0.8047341 -0.20018482 0.23661596 1.4042411 2.1933448 3.004356 1.2465465 1.2854072 -4.9442906 1.0162637
字 -0.82134575 -1.7011284 -2.1706705 -1.3442662 -0.6692573 1.4146744 -0.50900096 3.7307556 0.38924316 1.4382032
b 6.0643663 -4.9229655 -2.0161633 0.9205663 -4.273591 -4.579469 1.0534611 1.9219435 -2.3604481 3.1088476
仙 3.3107388 -2.0789447 -2.2330403 1.6803262 4.6134863 -0.2131279 0.44099873 1.4723387 -0.37468776 2.1952817
顺 -3.371244 1.3318703 2.7940207 -2.515988 3.5058198 -0.7645998 1.9398352 -1.2710345 0.76792073 -3.5162373
样 -2.1383817 2.1228065 2.1274037 1.6259655 1.1666497 3.9294724 1.3082856 1.1864359 -2.271633 2.7964914
射 2.0973346 -1.0717057 -0.03401609 1.7744231 0.15686296 2.827531 -0.7713739 -1.4825027 -0.6830747 1.2268124
端 -1.9585202 -1.3140175 -2.7323282 -0.21728672 -0.9256172 2.4091713 -1.6929086 0.6487528 0.17843759 0.46069777
u 7.965819 -5.3300786 -3.3551102 1.3719877 -1.6882513 -5.208046 1.7920164 -0.41413718 -0.51457715 3.4932945
堂 0.041268256 -0.9735699 -1.0601747 -0.01201645 2.2447786 -0.8028911 0.09104645 1.8934265 -1.1870664 2.060054
